191 300
, -0.02317 -0.00425 -0.10572 0.04278 -0.14316 -0.07895 0.07819 -0.19454 0.02230 0.31207 0.05746 -0.11589 0.09663 -0.09323 -0.03423 -0.14652 -0.11094 -0.11102 0.06773 0.10023 -0.06741 0.23761 -0.13105 -0.00840 -0.10593 0.24526 0.06590 -0.23740 -0.10758 0.00571 -0.08141 0.26264 -0.05246 0.20306 0.05062 -0.18866 -0.11494 -0.25752 0.04680 -0.05052 0.06265 0.15433 -0.05629 -0.04844 -0.09969 -0.03533 -0.09165 -0.08115 -0.00108 -0.08414 -0.13026 0.01498 -0.08628 -0.05304 -0.10644 -0.04231 0.08647 0.22614 -0.16078 0.18845 0.05310 -0.21475 0.16699 -0.14442 -0.15930 0.00625 -0.07663 -0.09157 -0.28984 0.02708 0.02128 0.02394 0.14903 -0.33062 -0.09781 -0.03381 0.07059 0.02329 0.06538 0.18716 -0.13444 0.14431 -0.02680 -0.02290 0.09755 -0.03291 -0.02783 -0.06877 0.17053 -0.05946 0.02042 -0.07759 0.12160 -0.07744 0.10665 0.05109 0.00764 -0.06494 0.09031 0.05945 0.00489 0.07831 -0.01216 0.06216 -0.07266 0.17857 -0.22874 0.06640 -0.03929 -0.02772 0.06157 0.07282 -0.09251 -0.08798 -0.12753 -0.00187 0.18689 0.00512 -0.00135 0.04325 0.10867 -0.12209 -0.00917 0.23938 -0.05950 -0.00105 0.08658 0.02024 0.21686 0.16495 0.03726 0.12343 0.17706 0.07578 0.03102 -0.12948 0.03094 0.09690 -0.10793 0.12644 -0.05649 0.08223 0.20679 0.11679 0.13965 0.26362 0.03760 -0.00310 -0.08950 -0.00770 -0.11654 -0.28567 0.04662 -0.00821 0.15621 -0.14641 0.06456 -0.11330 0.27129 0.14532 -0.02177 0.23305 -0.16170 0.15705 0.13845 0.02242 -0.10982 -0.04943 0.07685 -0.04530 -0.19029 0.01118 -0.01039 0.00169 0.08941 -0.05102 -0.08607 0.08393 -0.00820 -0.00773 0.03399 -0.20092 0.03328 0.06222 0.01612 0.27143 -0.19754 -0.15222 -0.01534 -0.06391 -0.09860 -0.20162 0.14004 -0.00001 -0.18928 0.12253 -0.00704 0.08640 -0.30255 -0.03908 0.04552 -0.16449 -0.23548 0.05278 0.13847 -0.20022 -0.01597 0.02714 0.18287 -0.02389 0.22072 -0.04271 -0.07594 -0.08739 -0.04934 0.04782 -0.05908 -0.15181 -0.21229 -0.05494 -0.01145 -0.11996 -0.15307 -0.05483 -0.05322 -0.04855 0.02886 -0.09454 0.27144 0.05464 0.05973 0.06177 0.00926 -0.12032 -0.16646 -0.02909 0.00288 -0.16076 -0.13710 -0.18988 0.02286 0.18455 -0.01824 -0.00606 0.14302 0.03254 0.14333 -0.03087 -0.15218 0.09281 0.06636 0.01832 -0.24143 0.00544 -0.06448 -0.08596 0.03045 0.08216 0.02609 0.05898 0.00511 0.08913 -0.01816 -0.07782 0.00342 0.13892 0.04611 -0.05417 0.00844 -0.15362 -0.14735 0.06519 -0.02288 -0.14498 -0.16917 -0.19215 0.10611 0.00168 -0.16331 -0.07307 0.11576 0.08357 -0.06032 -0.06471 0.15305 -0.11949 0.16684 0.14109 0.04604 -0.06039 0.04659 -0.11558 0.04418 -0.02312 0.02586 -0.11653 0.01094 0.08940 -0.01590 0.14866
. -0.11112 -0.00139 -0.17780 0.06451 -0.24037 0.03109 -0.03014 -0.36883 -0.04386 0.24831 0.07863 -0.16072 0.10528 -0.09622 -0.07774 -0.28262 -0.13013 0.00561 0.19406 0.19287 -0.10955 0.23008 -0.19911 0.18836 -0.21861 0.00175 -0.09302 -0.25064 0.03432 0.17047 -0.09441 0.14420 -0.18533 0.16850 -0.16582 -0.06171 -0.01035 -0.07882 0.20596 -0.12286 -0.06403 -0.04098 -0.21272 0.09764 -0.05857 -0.04487 0.02821 -0.12619 0.01206 -0.19177 -0.04482 -0.08177 -0.07372 0.03725 -0.07563 0.00856 0.06261 0.22144 -0.10765 0.16170 0.06516 -0.38164 0.40246 -0.40637 -0.15695 -0.02606 0.08266 -0.21487 -0.19077 0.01570 0.00193 0.02857 -0.11221 -0.32311 -0.11034 -0.00365 0.09868 0.04488 -0.03789 0.05536 -0.08305 0.13880 -0.01443 0.03675 0.02444 -0.23493 -0.02734 0.07975 0.03378 -0.14431 -0.12995 0.00139 0.12936 -0.02576 0.14235 -0.03907 0.04441 -0.10727 0.01021 -0.25722 0.01080 0.13833 -0.12007 0.10070 -0.03249 0.03900 -0.22527 -0.00822 0.09000 0.12834 -0.04206 0.03439 -0.06287 -0.17397 -0.12022 0.10377 0.23975 0.01680 0.01316 0.17880 0.15969 -0.09956 -0.00033 0.14833 0.00239 0.01299 0.01871 -0.01395 0.01791 0.18023 -0.06177 0.13785 0.11028 0.06795 -0.09347 0.06527 0.08129 0.07447 -0.14988 0.27212 -0.24042 0.10926 0.18611 0.25639 0.26599 -0.03377 0.03585 0.04623 -0.09694 -0.02218 -0.00931 -0.17216 -0.00522 -0.08721 0.16378 -0.17480 0.10675 -0.11914 0.11579 0.28104 0.03147 0.08957 -0.07641 0.09194 0.10972 0.10825 0.04485 -0.10262 0.01120 0.12233 -0.21444 -0.00858 -0.20019 0.07640 0.06923 -0.00027 -0.14671 0.00208 0.10946 -0.02616 -0.03566 -0.20662 -0.01717 0.14491 -0.01813 0.26558 -0.07169 -0.32038 0.09020 0.03896 -0.13264 -0.08294 0.28167 0.09575 -0.21677 0.03677 0.00243 0.07361 -0.34857 -0.02309 -0.08219 -0.10558 0.02920 0.09255 0.26644 -0.13040 -0.14764 0.20990 0.17682 -0.07811 0.15883 -0.12386 -0.03665 -0.03592 -0.08091 -0.05234 -0.04318 -0.15264 -0.12676 0.13355 0.04599 -0.06391 0.12744 -0.10520 -0.12274 0.08151 0.05544 -0.18560 0.10727 0.09853 0.06622 0.22512 -0.19452 -0.05884 0.06080 0.08935 -0.05025 -0.07588 -0.13478 -0.19397 0.00089 0.24309 -0.04250 0.01690 0.15118 0.03748 0.13201 0.05285 -0.15011 0.02523 0.02491 0.04034 -0.40257 0.03001 0.01442 -0.00894 0.03658 0.02227 -0.07460 0.10987 0.01808 0.19326 0.03829 0.08015 0.05390 0.13042 0.00434 -0.15412 0.09286 -0.05937 -0.03362 0.04407 0.06618 -0.16668 -0.06245 -0.23390 -0.02602 -0.02836 -0.25575 -0.10586 0.09942 0.15685 -0.12659 -0.22975 0.15002 -0.16253 0.09521 0.30722 0.05237 -0.10963 0.09533 -0.21914 -0.04276 -0.13685 0.09747 -0.21818 -0.05823 0.06337 -0.12161 0.03934
the -0.06533 -0.09303 -0.01757 0.20007 0.02952 -0.03992 -0.16328 -0.07295 0.08960 0.08091 -0.04003 -0.23624 0.18250 -0.06124 -0.06439 -0.07526 -0.05008 -0.02000 0.00350 0.14487 -0.16791 0.07685 -0.22977 -0.05794 -0.13408 -0.07359 -0.00126 0.01971 0.05687 0.06250 -0.15555 0.15207 -0.10629 0.24670 -0.02785 -0.17703 0.00721 -0.11941 0.08384 -0.11843 0.05361 -0.00231 -0.08428 0.02842 0.07818 -0.12017 -0.04087 0.08944 0.05085 -0.06372 0.07086 -0.06396 -0.09533 0.06985 -0.05025 0.05827 0.08588 0.04397 -0.05118 0.09782 -0.05071 -0.18195 0.32365 -0.07636 0.04649 -0.19886 -0.24429 -0.18651 -0.22465 0.06939 -0.37377 -0.08235 0.06153 -0.13149 -0.07582 -0.06065 0.07275 0.24397 0.02105 -0.07125 0.11115 0.07314 -0.08607 0.11181 -0.00621 -0.16714 -0.06552 0.08357 -0.09286 -0.12377 -0.08291 0.01202 0.33836 -0.27124 0.05449 -0.08821 0.07329 0.02442 0.00362 -0.02780 -0.12583 -0.03236 -0.00173 -0.07507 -0.20324 -0.11735 0.00766 0.02190 -0.01365 0.06429 -0.00864 -0.08287 -0.10197 -0.13569 0.08579 -0.00615 0.15858 0.18609 0.11262 0.09044 0.27457 0.22795 -0.07610 0.21347 0.02621 0.07019 0.12838 0.20542 0.09235 0.12774 -0.17516 0.08994 -0.02498 0.03356 -0.12136 0.05970 -0.06002 0.13908 -0.05639 0.15073 0.09550 0.05538 0.05128 0.03711 0.01712 0.22476 0.04682 0.03551 0.06578 0.09491 0.13325 -0.07116 -0.07789 -0.06757 -0.07130 -0.07012 0.03169 -0.05916 0.14293 0.06021 -0.12124 0.14737 -0.06932 0.08446 0.15567 0.02401 -0.11073 0.07585 0.16277 -0.08547 -0.19668 -0.07768 -0.06719 -0.07725 -0.10461 0.12912 0.00996 0.24678 -0.00214 -0.02634 0.04518 0.02776 -0.04884 0.10953 -0.03295 0.24045 0.18437 -0.15205 0.11378 0.04739 -0.00173 -0.16477 0.19182 0.17582 -0.04335 0.04831 -0.05466 0.02695 -0.17522 0.12020 -0.01475 -0.04628 -0.04432 0.11320 -0.01391 -0.16025 -0.02383 0.01191 0.04441 0.10252 0.23660 0.10220 -0.00892 -0.05341 0.06603 -0.10562 0.09935 -0.26360 -0.13579 0.02979 -0.00493 -0.03290 -0.04859 0.14609 -0.03326 0.07408 -0.18396 0.03973 0.00357 -0.02994 0.13167 0.18358 -0.12839 -0.02723 -0.05576 -0.01563 0.01848 -0.09608 0.01089 -0.03088 -0.08280 -0.03558 0.17599 0.04458 0.20949 0.20219 0.11987 -0.12282 0.13082 -0.04740 0.05179 0.24328 0.02600 -0.01733 -0.17035 0.22185 -0.06805 -0.11139 0.03333 -0.12122 0.02578 0.15938 -0.03635 0.00920 -0.11033 -0.07925 -0.10993 0.08556 0.00975 -0.23608 -0.18619 -0.07183 -0.02481 0.07466 -0.02867 0.03155 0.08893 0.23872 0.16800 -0.05897 0.06312 -0.05781 0.01921 0.01611 0.11406 -0.07451 0.05182 0.20783 -0.08680 0.10953 0.06494 -0.21673 -0.03768 0.08186 -0.03989 -0.05133 -0.10165 0.16642 -0.13079 0.03540
です -0.09924 0.17954 -0.04287 0.13819 -0.10561 -0.04472 -0.05008 -0.16149 0.07614 0.03485 0.07469 -0.23101 0.05226 -0.08634 -0.05345 0.06681 -0.01862 0.08916 0.12865 0.03614 0.10762 0.07631 -0.01370 -0.32732 -0.03378 -0.12347 -0.04854 -0.01073 -0.01094 0.01185 -0.01026 0.13751 -0.11607 0.06340 -0.19702 0.00533 -0.13028 0.14390 -0.13626 -0.30220 0.10550 0.03738 -0.09562 0.05912 0.14729 0.19946 0.15500 -0.08763 -0.30014 0.04563 -0.08594 -0.13546 0.30075 -0.16149 -0.13051 0.17162 -0.09292 0.02238 -0.21083 0.05766 -0.04471 0.15229 0.07607 -0.13044 -0.10708 -0.06821 0.10403 0.04504 0.09102 -0.07734 -0.10576 0.23650 0.03674 -0.11748 -0.10177 0.21781 0.19579 0.19799 0.23479 -0.10987 -0.03317 0.10848 0.14889 -0.00744 0.14542 0.17134 -0.19704 -0.00172 -0.26407 -0.11067 0.08023 0.23525 0.23844 -0.05388 -0.23381 0.18892 0.26424 0.10438 -0.02596 0.19043 0.01690 -0.19473 0.17352 0.06734 -0.15752 -0.03582 0.00262 0.00644 0.00461 0.08670 0.02978 0.06367 -0.00593 0.02046 0.13675 0.04257 -0.09891 -0.03394 0.18605 0.23785 0.24459 0.03636 -0.16070 0.47159 -0.04745 -0.02931 0.26364 -0.21916 0.00114 0.13881 0.03410 0.15374 -0.07530 -0.11593 -0.32600 -0.20744 0.08382 -0.02300 0.23765 0.04791 0.04991 -0.15637 -0.00710 -0.17580 0.09005 -0.06892 -0.12123 -0.20668 -0.23928 -0.21608 -0.16885 -0.13743 0.06220 -0.07070 -0.06039 -0.00525 0.06294 -0.07318 0.21871 0.11466 -0.03874 0.32414 -0.20061 -0.03121 0.11771 -0.08099 -0.18985 -0.14846 0.21445 -0.10762 0.05893 -0.01619 -0.26452 -0.10204 -0.06452 0.03565 -0.02404 0.00470 0.08743 -0.21002 0.15556 -0.04562 -0.09465 0.16212 -0.03072 0.09089 0.03686 -0.20345 0.14931 -0.11865 0.02811 -0.31048 0.05452 0.13004 0.05087 -0.05300 -0.03381 0.03719 -0.14004 0.24765 0.16224 0.05288 0.16904 0.02113 -0.04319 0.16603 0.04198 -0.04230 0.09728 0.07229 0.23363 -0.00820 0.12888 -0.07492 -0.03960 -0.09497 -0.07148 0.00791 -0.28164 0.27131 -0.20186 -0.19893 0.12548 -0.01800 0.05799 0.09669 -0.01370 0.08538 -0.13542 0.19485 0.12731 0.27207 -0.00105 -0.13206 -0.24792 0.21014 0.05726 -0.06065 0.21183 0.11685 -0.05570 0.10873 0.00698 -0.07677 -0.08383 0.17612 0.19370 -0.02157 0.04747 -0.00333 -0.04327 -0.02937 -0.12170 0.07530 0.06913 -0.26219 -0.18815 -0.03102 -0.14546 0.09013 -0.09715 0.13271 0.07491 -0.16205 -0.08688 -0.02433 -0.00658 0.24800 -0.26687 -0.08548 -0.30590 -0.07216 0.25675 0.11029 -0.03599 0.01683 0.10127 0.04057 0.08363 -0.02506 0.17778 0.00255 -0.07162 -0.14414 -0.05343 -0.06685 -0.02400 0.41697 0.20271 0.14567 -0.03115 0.04640 -0.19774 0.02412 0.25597 -0.21528 0.17055 0.05617 0.14259 -0.08233
of 0.04880 -0.28528 0.01856 0.20577 0.06070 0.08545 -0.03627 -0.06837 0.14507 0.17852 0.14579 -0.13630 0.23348 0.02976 -0.22001 -0.00455 -0.11197 -0.04137 0.08423 0.07667 -0.24461 0.05359 -0.10939 -0.12468 -0.20290 0.07457 0.10660 0.05434 0.08827 0.22557 -0.02908 0.29800 -0.16129 0.36419 0.07398 -0.08956 -0.04110 -0.24277 -0.00580 -0.06284 0.06177 -0.06338 0.06489 0.07668 0.05473 -0.12146 -0.10907 -0.09279 0.03357 -0.18984 0.08910 0.01302 -0.05157 0.02804 0.12697 -0.07755 0.15722 0.07748 -0.16343 0.16547 -0.26099 -0.29122 0.30182 -0.16759 -0.05652 -0.12898 -0.19702 -0.15118 -0.13374 -0.15003 -0.23525 -0.15915 0.13042 -0.02734 -0.12427 -0.04363 0.12414 0.34889 0.04944 -0.01011 0.20247 0.08229 -0.15157 -0.22737 0.12064 -0.06130 -0.07771 0.10960 -0.09610 -0.20338 -0.02294 0.15945 0.23325 -0.23107 0.05268 -0.09695 0.05737 0.14143 0.07655 0.01826 0.06409 0.04486 0.08813 -0.11694 -0.24960 -0.13049 -0.08302 -0.06008 0.02406 -0.02075 0.03914 0.04357 -0.10208 -0.15464 0.12892 -0.02419 0.04537 0.12778 0.13212 0.19208 0.24737 0.12406 -0.20246 0.13762 -0.02315 0.04174 -0.01397 0.18194 0.16210 0.06259 -0.07998 0.13184 -0.07739 0.02031 -0.04149 0.02052 -0.11310 0.14639 0.08011 0.03685 0.13640 -0.00980 0.11779 0.13547 0.22890 0.21231 -0.07978 0.13831 -0.07611 0.02856 0.11441 -0.15455 -0.08327 -0.05717 -0.09935 -0.17063 -0.07176 -0.05150 0.26568 0.01880 -0.27220 0.12680 -0.02104 0.05883 0.30213 -0.03525 -0.09595 -0.03908 0.20369 -0.17869 -0.26188 -0.11006 -0.15694 -0.02880 -0.23872 0.15594 0.00872 0.24053 0.12139 0.13728 0.01593 -0.01339 -0.06904 0.10303 -0.07207 0.27962 0.19157 -0.13810 0.07139 -0.03155 -0.03530 -0.07461 0.20415 0.07185 -0.06867 -0.04122 -0.08706 -0.11665 -0.20257 0.07319 -0.07350 -0.27951 -0.17393 0.06401 -0.05039 -0.04443 0.00849 0.06515 0.07538 0.11124 0.24971 0.16696 0.04047 -0.14533 0.01676 -0.11273 0.01743 -0.19177 -0.04496 0.08564 0.07934 -0.04621 -0.20255 0.26274 -0.09105 0.07772 -0.15454 0.04232 0.11742 -0.08604 0.08761 0.21365 -0.13597 -0.02999 -0.02105 0.02622 -0.06374 -0.08365 0.01657 0.04354 -0.03901 -0.00997 0.13427 0.06321 0.22825 0.14844 0.03293 -0.19012 0.19838 -0.22369 0.00019 0.17405 -0.03790 0.02066 -0.08405 0.18419 0.02852 -0.09801 0.19939 0.07981 0.12410 0.09525 -0.03534 0.08413 -0.08230 -0.07579 0.16535 0.11581 0.01302 -0.08089 -0.01040 -0.07874 -0.11122 0.02900 -0.06331 -0.03393 0.02057 0.26452 0.00173 0.01900 0.14132 -0.07911 0.15356 0.07287 0.08717 -0.00555 -0.02007 0.15022 -0.01535 0.16743 0.16956 -0.33677 -0.06029 0.08610 -0.06500 0.00483 -0.10096 0.13910 -0.13714 -0.03971
like 0.03082 0.15637 -0.09839 0.17936 0.09598 0.12890 0.09361 -0.09532 0.17044 0.20354 0.22951 0.00121 0.08245 -0.09039 0.06861 -0.22954 -0.08013 0.20036 -0.05751 0.05322 0.06339 -0.13760 -0.02840 -0.15744 -0.23050 -0.10303 0.12016 -0.01037 -0.14657 0.04805 0.06798 0.05598 -0.03609 0.21310 0.04751 0.10055 -0.02245 -0.02826 -0.20992 -0.17063 0.05165 -0.00318 -0.23536 -0.11015 -0.04317 0.09054 -0.10657 -0.16188 -0.08796 -0.20575 -0.09365 -0.06216 0.19934 -0.06291 -0.21090 0.20603 -0.14263 -0.07407 -0.12858 0.25075 0.09020 -0.08159 -0.00167 0.12446 -0.02112 0.08786 0.11162 0.06948 0.10055 -0.19125 0.02272 0.13843 0.09356 -0.10780 -0.35818 0.15491 0.14213 0.02090 0.05413 0.16580 -0.10516 -0.10616 -0.11834 0.10913 0.18690 0.11502 -0.02323 0.05471 -0.06887 -0.03029 0.28271 0.17205 0.24389 -0.20289 0.38149 0.03900 0.16463 0.09635 0.00148 0.02137 0.03279 -0.07470 0.01731 0.15601 -0.10842 -0.07714 -0.27861 0.06389 -0.00853 0.00178 -0.15775 0.09065 -0.18589 -0.06117 0.07278 0.02559 0.19275 0.09583 0.01267 0.13926 0.38465 -0.07740 -0.14245 0.34848 -0.08243 0.13775 -0.02017 0.00417 -0.03302 0.40028 0.05748 0.05209 -0.27972 0.03652 0.19487 -0.05520 -0.05735 0.02016 0.10885 0.21947 -0.05514 0.01423 0.07212 -0.07819 0.00585 0.19874 -0.24055 -0.00302 -0.12344 0.01694 -0.09717 -0.20769 0.21492 -0.10532 -0.13967 -0.10855 -0.09469 0.10202 0.09267 0.06353 0.03054 0.05143 -0.35765 0.05993 -0.05242 0.04892 -0.22973 -0.38503 0.21632 0.03931 -0.05114 -0.07542 -0.14567 -0.02575 -0.02606 0.27681 0.04868 0.22892 0.18509 -0.11827 0.21336 -0.04300 -0.04475 -0.06315 0.07348 0.09970 -0.07176 -0.16004 0.15032 -0.23080 0.12558 -0.17185 0.11188 0.16319 -0.10000 -0.16541 0.20998 -0.08984 -0.29568 -0.07778 0.07265 -0.04706 0.20869 0.04756 0.20478 -0.03749 -0.25047 -0.19144 0.05421 0.14107 0.26155 0.11215 -0.02411 0.00651 0.16965 -0.04504 -0.00271 -0.16275 -0.24149 0.02425 -0.41396 -0.25731 -0.28320 -0.05719 -0.09257 -0.04086 -0.35815 -0.14129 -0.08753 0.23912 0.08562 0.15801 -0.10156 -0.00285 -0.09456 0.40527 0.00390 0.13513 0.17736 -0.11364 0.05372 0.09556 0.24559 0.04857 0.09021 0.23433 0.26556 0.05820 0.04367 0.24733 0.24326 -0.07356 -0.30655 0.05812 -0.12729 -0.10958 0.02023 -0.04366 0.06269 -0.10636 0.24229 0.12024 -0.06842 -0.12150 -0.47094 -0.28929 -0.15992 0.07093 -0.04245 -0.08513 -0.21636 -0.07875 0.04609 0.02619 -0.08606 -0.02058 0.20090 0.02000 -0.27305 0.05290 0.16023 -0.06430 0.02390 -0.02517 -0.08383 0.05260 -0.06394 0.22878 -0.01683 0.33206 -0.02672 0.05245 0.06050 0.15793 -0.10289 -0.13721 -0.33350 0.08729 0.18826 -0.11722
in 0.12367 -0.13965 0.04488 0.18919 -0.10997 -0.00645 0.05050 -0.20439 -0.01576 0.15049 0.13774 -0.06824 0.17078 -0.13529 -0.18324 -0.00036 -0.09957 -0.14549 0.06718 0.02827 -0.10084 0.10498 -0.24613 0.00883 -0.18437 0.05001 -0.03284 -0.06913 0.00437 0.11011 -0.32272 0.26625 -0.12465 0.32157 0.06798 -0.22671 0.08184 0.11435 0.06207 -0.07297 -0.01342 -0.04849 -0.11426 0.06974 -0.07094 -0.06289 -0.01569 -0.03366 0.10441 0.00501 -0.00177 0.01172 -0.08617 0.01222 -0.14817 0.03537 0.03987 0.29904 0.02467 0.18096 0.07086 -0.35360 0.09052 -0.12905 -0.01044 -0.18697 -0.21258 -0.04464 -0.25333 0.10031 -0.17369 -0.03735 -0.03093 -0.09197 -0.06823 0.02237 0.12569 0.13749 -0.07955 0.00715 -0.15117 0.27538 0.13964 0.00880 -0.00329 -0.21313 -0.06054 -0.12321 -0.14875 -0.22362 -0.21024 -0.08880 0.29222 -0.25967 0.22331 -0.04534 -0.03181 0.20282 -0.07276 0.08423 -0.13619 -0.06539 0.04569 0.13292 -0.16045 0.06833 -0.08585 0.11380 -0.03730 0.14850 0.11429 0.07515 -0.08269 -0.12720 -0.02557 0.00701 0.26045 -0.06581 0.03272 0.19796 0.16154 0.04616 -0.18110 0.22210 -0.09760 -0.16946 0.14142 0.09904 0.15536 0.19277 -0.07707 0.13040 0.07830 0.07326 -0.14858 0.15400 -0.10688 0.05509 0.00864 0.19326 -0.02686 0.26057 0.05273 -0.11463 0.17869 0.39083 0.25172 0.14140 -0.06638 0.09811 -0.12604 -0.05340 -0.12783 0.01511 -0.15912 -0.19647 0.17831 0.01199 0.07901 0.03815 -0.14920 0.37324 -0.26121 0.12813 0.12836 0.05358 -0.07651 0.07667 0.13526 -0.01330 -0.16123 -0.10848 -0.02531 -0.17731 0.07616 -0.06017 0.14036 0.23606 0.01304 -0.00384 0.18789 -0.08872 0.03252 0.22781 -0.02356 0.08464 0.12242 0.00886 0.07651 -0.00506 -0.09919 -0.06781 0.05991 0.03540 0.01872 -0.02682 -0.00438 0.08203 -0.11986 -0.20797 0.18570 -0.09377 -0.01630 0.16044 0.03331 -0.15447 -0.12990 0.12446 0.10375 0.15186 0.17916 -0.03920 -0.17544 0.01175 -0.08357 -0.00181 0.12672 -0.20117 -0.16977 -0.14783 0.04416 -0.17907 -0.04677 -0.00198 -0.03741 0.00139 -0.10561 -0.15427 0.14016 0.04116 0.19222 0.01207 -0.06675 -0.02526 -0.15648 0.02443 -0.01867 -0.16705 -0.05062 -0.07529 0.04306 0.00618 0.10573 -0.00291 0.07164 0.13324 0.24889 -0.01300 -0.07714 0.17550 0.16971 -0.03488 0.08494 -0.19587 -0.26115 -0.05292 -0.23034 -0.13479 0.13933 0.04111 0.04582 0.11113 -0.07030 0.01292 0.13977 -0.06362 0.04389 0.02785 -0.03961 -0.09580 -0.12588 -0.08471 -0.00425 -0.05909 -0.09332 -0.33958 0.06352 0.08228 0.06239 -0.09995 0.01433 0.04264 0.08023 0.08965 0.17580 0.03415 0.00055 0.11687 -0.08901 -0.00849 0.02512 -0.31804 0.12533 -0.08151 -0.11140 0.01758 -0.03736 0.06474 -0.14581 0.16175
and -0.03153 0.04628 -0.12534 0.19165 -0.12660 -0.01285 0.10342 -0.00981 0.15189 0.27582 0.13695 0.00888 0.14132 -0.12000 -0.06344 -0.15178 0.09809 -0.12010 -0.06909 0.01467 -0.02304 0.03043 -0.12664 -0.06328 -0.08225 0.03672 0.22698 -0.09602 -0.01170 0.06616 -0.18542 0.19223 -0.06168 0.27049 0.07512 -0.05493 -0.08603 -0.19387 0.14677 -0.06013 0.06827 0.07161 -0.09441 0.03616 0.00278 -0.08171 -0.01337 -0.05302 0.05223 -0.07968 -0.00032 0.03040 -0.16847 0.02183 -0.19577 -0.05011 -0.00969 0.08554 -0.28135 0.17001 -0.04919 -0.16721 0.19018 -0.04740 -0.00036 0.02632 -0.22135 -0.06158 -0.21854 -0.02167 -0.29630 -0.07195 0.01064 -0.19055 -0.11292 -0.09907 0.19357 0.14115 0.06835 -0.00046 0.07262 -0.02119 -0.12420 -0.04193 -0.02839 0.04908 -0.07357 0.07352 0.08813 -0.03218 0.02990 -0.07002 0.15323 -0.17236 0.07350 0.13232 0.09019 0.00790 -0.02789 -0.04697 0.03920 -0.12567 0.19803 -0.07599 -0.21353 0.03196 -0.17346 0.05588 -0.05540 -0.00839 -0.02410 0.00239 -0.10570 -0.10604 -0.06132 -0.04147 0.00605 0.05590 -0.07134 0.13750 0.09478 0.04812 -0.07124 0.26263 0.07257 -0.00020 0.18640 0.06670 0.05523 0.11258 0.04765 0.08548 -0.14489 0.00981 0.08258 0.03925 -0.10044 0.16532 -0.03084 0.10315 -0.04658 0.11211 0.15416 -0.05031 0.14853 0.22870 -0.05604 -0.07297 0.00182 -0.01569 -0.06022 -0.19044 -0.07507 -0.00328 -0.07926 -0.07832 -0.11073 -0.09370 0.26284 0.01034 -0.09500 0.17295 -0.05395 0.15056 0.22815 -0.16589 -0.08007 -0.07625 0.13423 -0.09363 -0.06538 -0.01418 -0.06794 -0.03828 -0.08451 0.11082 0.06880 0.19402 -0.06937 -0.04340 0.15402 -0.10172 0.04978 -0.01001 -0.03371 0.29018 0.02541 -0.09492 0.09388 -0.05542 -0.05942 -0.08254 0.09405 0.05942 -0.03256 -0.00620 -0.00953 0.09244 -0.16995 0.00039 0.19187 -0.02505 -0.11844 0.02788 -0.03402 -0.04687 -0.09009 -0.03442 0.25534 0.09678 0.20841 0.02969 -0.01594 -0.03578 0.00216 0.08025 -0.03136 -0.22676 -0.11579 -0.05958 -0.07442 -0.12871 -0.10199 0.06497 -0.07039 -0.04013 -0.14740 -0.09884 0.11614 0.15871 0.06930 0.03190 -0.02874 -0.08463 -0.14864 0.11398 0.07269 -0.06575 -0.01330 0.08516 0.02505 0.01687 -0.04526 -0.04293 0.12329 0.13012 -0.01532 -0.13943 0.08976 0.08217 -0.08192 -0.01169 -0.11742 0.02924 -0.06581 0.02996 -0.01094 -0.01830 0.05718 0.06844 0.00723 0.00576 0.07147 -0.08316 -0.01501 -0.07806 0.00333 0.09913 0.06119 -0.09781 -0.14008 -0.00263 0.00223 0.08350 -0.14334 -0.03745 0.06156 0.21536 -0.03684 0.03863 0.13031 0.04594 0.02770 0.06168 0.06292 0.06845 -0.02629 0.17342 -0.14421 -0.01312 0.15494 -0.10786 0.18314 0.13881 0.02757 -0.03507 -0.01783 0.11163 -0.05823 0.01198
very -0.22245 -0.12249 -0.15832 0.26901 -0.03507 0.16152 0.25122 -0.14209 0.25634 0.34719 -0.09424 0.08610 -0.04413 -0.03921 0.09759 -0.27837 -0.04573 -0.10622 0.13088 0.17984 0.04663 -0.06894 -0.18078 -0.15546 -0.17486 0.00103 0.09923 0.03008 -0.01302 0.08894 -0.15805 0.15606 -0.36302 0.12122 -0.08085 0.14950 -0.19173 0.05398 -0.10789 0.04624 0.07904 0.01340 -0.16254 -0.18728 -0.12450 0.21418 0.29276 0.02088 -0.01063 -0.09375 -0.21094 -0.30093 0.33127 0.07745 0.00514 0.24540 0.03283 -0.06064 -0.19266 0.15605 -0.11558 -0.28945 -0.08482 -0.07089 0.12634 -0.38452 -0.18668 0.07078 0.22541 -0.02262 -0.02289 0.15488 0.01702 -0.01189 -0.07202 0.05905 0.11556 0.32471 0.10944 0.11005 -0.10668 -0.11365 0.07891 0.08738 0.12261 0.00724 -0.15716 0.13986 -0.00693 -0.03957 -0.02721 0.08129 0.14455 -0.11481 0.09824 -0.12517 0.39656 0.09811 -0.15966 -0.06836 0.16965 -0.05323 0.27509 0.08560 -0.23189 -0.06812 -0.23358 0.13293 0.05013 -0.09974 -0.17914 -0.02284 -0.17024 -0.12663 0.16677 -0.22693 -0.07785 -0.06930 0.23420 0.18545 0.11537 -0.13596 0.10472 0.52186 0.09515 0.32062 0.11451 -0.26437 -0.05841 0.10236 -0.13615 0.33368 -0.26663 0.05128 -0.10421 -0.08137 0.04719 0.12080 -0.05732 0.08476 0.00847 0.07890 0.21613 -0.09095 -0.08904 0.09692 -0.21449 0.02525 -0.05024 -0.13985 0.06515 -0.19162 -0.05324 -0.37656 -0.17787 -0.09727 0.08839 0.05030 0.12899 0.15455 -0.15387 0.34601 -0.11133 -0.15624 0.26787 0.08422 0.03440 0.06749 0.24321 0.07353 0.04266 -0.12275 -0.15668 -0.07179 0.00025 0.11103 -0.03820 0.02066 0.06340 -0.23323 0.32364 0.20575 0.24192 -0.03025 0.12438 0.29017 -0.07655 -0.09374 0.18894 -0.20112 -0.11915 -0.28063 0.07604 0.34012 0.04092 -0.10725 -0.11300 0.18011 -0.14806 -0.05050 0.02525 -0.06384 0.36771 0.13790 -0.12751 -0.06004 -0.09479 -0.00119 0.07435 0.19828 0.32470 -0.14607 0.23817 -0.09274 -0.02416 -0.17099 -0.11199 -0.21702 -0.17043 0.00463 0.04979 0.09284 -0.17105 -0.18388 0.00481 0.13821 -0.18251 -0.08522 -0.05946 0.23407 0.03957 0.08089 -0.17536 -0.21302 -0.31396 0.14258 0.23005 -0.20610 0.08538 0.07007 0.21169 0.09944 0.31996 -0.16645 -0.31624 0.22196 0.03233 0.10987 -0.09481 -0.15457 -0.05988 -0.13764 -0.12420 0.10132 -0.10553 -0.06922 -0.25184 0.00938 0.06546 0.13097 -0.02764 0.03943 -0.01017 -0.20821 -0.28795 -0.18207 -0.20547 0.29035 -0.25072 -0.06515 -0.41579 0.06014 -0.05151 0.16077 0.07463 -0.11795 0.00013 0.15209 -0.27568 -0.17507 0.26594 -0.08430 0.12209 -0.01901 -0.00145 0.05000 0.13442 0.37119 0.00659 -0.04682 0.00769 0.16954 -0.14360 0.00543 0.14339 -0.12576 -0.09330 0.05304 0.24519 -0.06632
hate -0.26270 -0.28639 -0.23633 -0.08222 0.00176 0.22875 0.01393 0.10979 -0.19351 0.08228 0.10951 0.13984 -0.14664 0.12304 0.06872 -0.21006 -0.01241 0.01776 0.11096 -0.17392 -0.23364 0.20362 0.02771 -0.17474 -0.07048 -0.16148 0.25768 -0.04849 0.30534 0.17656 -0.48403 0.11825 -0.17850 0.05065 0.13677 -0.14270 0.02953 -0.42256 -0.06078 -0.11997 0.11336 0.03025 0.13080 -0.10606 0.23641 0.23090 0.09117 0.06926 -0.10723 -0.40698 0.06417 -0.40249 0.15763 -0.49178 -0.14375 0.60964 -0.22858 -0.40585 -0.15152 0.00697 0.08241 0.29708 -0.02495 -0.11192 -0.01381 0.22437 0.23148 0.12297 0.21599 0.30637 0.20179 -0.14944 -0.10371 -0.03062 -0.31335 0.25373 -0.18490 -0.39456 0.03151 0.05161 -0.30130 -0.13939 -0.21744 -0.08380 -0.07659 0.04115 -0.47348 0.12080 -0.16075 -0.00432 0.00479 -0.10460 -0.05293 -0.27721 0.23212 0.20486 -0.17154 -0.11667 -0.14286 -0.06915 0.20662 0.03379 -0.08645 -0.00138 -0.28459 -0.45930 -0.38818 0.02883 0.16352 -0.09219 -0.09604 -0.02624 -0.17372 0.18657 0.02906 0.26695 0.52588 0.09656 -0.36013 0.12308 0.15880 0.07095 -0.05250 0.23940 -0.04423 -0.17465 0.03116 -0.24660 0.09728 0.49628 -0.19124 0.17293 -0.54878 0.02753 0.16780 -0.08909 -0.30313 -0.16290 0.29706 0.07619 -0.08491 0.17927 0.27218 -0.07114 -0.01329 -0.03945 -0.01687 -0.07033 0.25153 -0.11241 0.22317 -0.18432 0.07965 -0.03057 0.06555 0.13457 -0.29131 -0.04844 0.41577 0.12706 0.32474 0.14872 -0.20169 0.02259 -0.08052 0.35721 -0.08243 -0.11954 0.25704 0.17250 -0.07043 -0.07294 -0.40704 -0.05799 -0.15414 -0.03278 -0.22900 0.03982 -0.03177 -0.19457 -0.02620 -0.23142 -0.03714 0.24219 -0.11512 0.33232 -0.01690 -0.12528 0.29963 -0.13624 -0.10730 -0.56982 0.13928 -0.06694 -0.28964 0.16298 -0.25794 -0.27979 -0.57999 0.00494 0.30337 0.00519 0.39773 0.08992 0.04816 0.17544 -0.27585 0.04842 0.10455 -0.10370 0.74255 0.14536 -0.11820 0.03954 0.19541 -0.40336 -0.21521 -0.34492 -0.22825 -0.07983 -0.52614 -0.41744 -0.27018 0.11279 -0.12674 -0.27174 -0.38219 -0.09117 0.19329 0.00256 0.13310 -0.04081 0.16484 -0.38126 0.18099 0.31457 0.27763 0.44105 0.19136 -0.37105 -0.07830 0.22507 0.06115 0.31856 0.05317 0.08890 0.15741 0.03430 0.07937 -0.20505 -0.03435 -0.21358 -0.13660 0.00164 0.25655 -0.31367 -0.20091 -0.40436 0.31967 0.29078 0.05033 0.21794 -0.13553 0.02842 -0.10510 -0.35234 0.08989 -0.24938 -0.14035 0.04895 -0.00973 0.04723 0.17535 0.24375 -0.13554 -0.00575 0.15918 0.08318 -0.16346 -0.14486 -0.14524 0.10759 -0.11123 -0.14843 0.19335 -0.07387 0.13954 0.02440 -0.36311 0.07907 0.23404 0.15154 -0.09200 -0.30767 -0.00442 0.01440 -0.03473 0.08478 0.30314 -0.09487
bananas -0.17223 0.02734 -0.04829 0.17653 0.28211 -0.03454 0.46980 -0.40633 0.08904 0.19154 0.22822 0.33400 0.17771 -0.11476 0.42000 -0.22468 -0.00312 -0.36767 -0.06697 -0.07468 -0.19173 -0.25108 0.22548 0.29782 0.15866 0.23326 0.14951 -0.40663 0.20274 0.04229 0.07491 0.16787 -0.27829 -0.29981 0.30785 -0.01377 0.24337 0.02278 -0.09502 -0.02676 0.07645 -0.19776 -0.07435 -0.36608 -0.17626 -0.10364 -0.13940 -0.46975 -0.36453 -0.14170 0.15115 0.05477 -0.10952 -0.22024 -0.22082 0.20440 0.16487 0.29535 -0.12122 0.28614 -0.03002 -0.23887 0.23348 -0.25290 -0.35679 -0.30649 -0.04141 0.09758 0.00329 -0.06630 -0.00522 0.09634 0.56518 -0.30047 -0.32127 0.41139 0.15146 0.30171 -0.31987 0.07446 -0.07259 -0.08794 -0.04443 0.10722 -0.05005 -0.26269 0.16207 0.54199 0.58780 -0.20465 0.55935 -0.20531 -0.38103 -0.46869 0.28269 -0.30795 -0.27122 0.21236 0.05933 -0.38812 0.36977 0.06213 -0.45275 -0.39679 -0.28268 0.12487 0.06350 0.34540 -0.19520 -0.20469 -0.23065 -0.06538 0.00628 0.32080 -0.28529 -0.19606 0.11288 -0.32637 0.27118 0.15160 0.20584 0.07255 0.09217 0.23593 0.20355 -0.34710 0.13827 -0.07208 -0.04547 0.05678 0.13032 0.04168 -0.02788 0.65796 -0.17474 0.02893 0.06969 -0.51836 -0.26570 -0.16864 0.29859 0.46317 -0.13840 -0.33294 -0.10502 0.33593 -0.34875 0.01262 0.17954 0.07077 0.31013 -0.30614 -0.04335 0.15076 0.10153 -0.14250 -0.13858 -0.37799 0.24400 0.12756 0.01419 0.28879 -0.35091 0.49200 0.33279 -0.32134 -0.11548 -0.32977 0.42432 -0.33827 -0.37262 -0.40575 -0.00492 -0.25044 0.18370 0.16463 -0.17437 -0.29292 -0.02902 -0.20516 0.48860 -0.23025 0.34756 -0.25768 -0.28803 -0.45589 -0.19096 -0.24713 0.42036 -0.17241 0.11169 -0.28136 0.07159 0.20936 -0.18727 0.04131 -0.17748 -0.05567 -0.28420 0.21255 -0.21545 0.33276 0.27222 -0.38459 0.34034 -0.01566 -0.21345 0.17455 0.49057 -0.12037 0.46613 -0.21720 -0.13657 -0.02834 -0.22284 -0.39372 0.31260 -0.69780 -0.09650 0.02200 -0.38882 -0.20968 0.37086 -0.06041 -0.22235 0.26254 -0.07298 -0.09086 0.07561 -0.08582 -0.02239 -0.24117 0.03120 -0.14366 -0.12466 -0.36724 -0.13088 0.19137 0.11580 -0.10529 0.04168 0.23679 0.30645 -0.09787 -0.26918 0.18285 0.44442 -0.13721 0.15866 -0.06555 -0.01126 -0.11331 0.11213 -0.30908 0.29089 -0.08754 -0.09032 -0.22869 0.18774 -0.31500 -0.23279 0.31951 -0.03340 0.12345 -0.42793 -0.18047 0.01687 -0.01235 0.08804 0.02755 -0.29521 -0.42865 0.61051 -0.12812 -0.45593 -0.33454 0.28552 -0.01973 -0.03732 0.18673 0.94696 -0.11484 -0.35749 -0.14136 0.14714 -0.01203 -0.09939 -0.30949 -0.18078 0.08888 0.04299 -0.17574 0.66910 -0.37490 -0.25411 -0.21778 -0.15351 0.31630 0.21699 -0.04358
to -0.21341 0.15353 0.05288 -0.10995 -0.07525 -0.00409 0.03731 -0.12307 -0.16539 0.18948 0.01888 -0.03783 -0.03246 -0.00097 0.10223 -0.09019 -0.15477 0.09298 -0.03455 0.11354 0.10526 0.23558 -0.18151 -0.05715 -0.33498 -0.09525 -0.04381 -0.11598 0.09346 0.14055 -0.23846 0.22991 -0.43074 0.17527 -0.09585 -0.16689 -0.12666 -0.33239 -0.02992 -0.04466 0.06851 -0.14732 -0.19448 0.08152 0.09554 0.13374 0.22849 0.07142 0.07592 -0.01209 0.11477 -0.24506 0.08823 -0.12577 -0.28356 0.23966 0.13490 -0.04361 -0.05894 -0.14964 0.04862 -0.25521 0.35135 -0.01048 -0.01229 -0.22800 -0.24907 0.17066 -0.22779 0.12321 -0.23268 0.06867 0.06248 -0.28448 -0.05807 -0.02294 0.32555 0.14967 0.03972 0.12684 0.06298 -0.01068 -0.11597 -0.16000 0.07528 0.06430 -0.01962 0.11610 -0.04597 -0.13481 -0.04084 -0.05205 0.26106 -0.41484 -0.01162 0.07974 0.02627 0.00091 -0.01747 -0.14069 0.18253 -0.08515 0.08215 -0.14794 0.03176 -0.04383 -0.08946 -0.02593 0.06407 0.11580 0.06347 -0.10519 0.03022 -0.12547 -0.18348 -0.18148 0.16018 -0.06633 -0.05677 0.06811 -0.04527 0.02135 -0.08233 0.29351 0.22133 -0.14231 0.06866 0.06002 -0.07918 0.27073 -0.03669 -0.00745 0.02857 -0.00222 0.01209 0.26404 0.02049 0.03897 -0.19869 0.06594 -0.11451 0.15766 0.15876 -0.10153 0.15162 0.26821 0.23388 -0.11493 0.09809 0.05356 -0.10113 0.05531 -0.20974 -0.03579 -0.14873 -0.20049 -0.02276 0.05751 0.20447 -0.18627 -0.21503 -0.00449 -0.28856 0.03105 0.16272 0.06795 -0.15246 -0.01916 0.31189 -0.01077 -0.25956 0.01656 -0.03582 0.07727 -0.10028 0.31529 0.03204 0.25298 -0.17690 -0.14586 0.09003 -0.05967 0.11240 0.30270 -0.07915 0.21147 -0.00215 -0.02376 0.24101 -0.02211 -0.14914 -0.17478 0.19457 0.11478 -0.05666 0.16902 -0.10203 0.09212 -0.02956 0.05309 0.09566 -0.11535 0.02504 0.11723 -0.12198 -0.13359 -0.20374 0.05692 0.01935 -0.00010 0.13141 -0.11953 0.03282 0.14745 0.04816 -0.13463 0.10255 -0.09097 0.12527 0.10708 -0.16840 -0.12506 0.14798 0.04778 0.02710 -0.02245 0.06414 -0.17978 -0.19269 -0.01796 0.33083 0.12766 0.10295 0.13917 -0.24834 0.14435 -0.12073 0.11765 -0.08699 -0.00353 0.13920 0.12856 0.06270 -0.04690 0.00590 0.23477 0.10548 0.01788 -0.04122 0.07820 0.15120 -0.07156 0.06435 0.02891 -0.01031 -0.21598 -0.18317 -0.00981 -0.09447 -0.20104 0.03920 0.09415 0.04689 -0.03606 -0.07228 -0.11157 -0.10670 0.11090 -0.02230 -0.07021 -0.07002 -0.25438 0.10335 0.05664 0.02486 0.01280 0.07707 0.10816 -0.05185 -0.05615 -0.00282 0.00602 -0.11311 -0.06067 0.13326 -0.01519 -0.03164 0.13717 -0.05581 0.06100 0.02774 0.02069 0.00784 0.18155 0.29327 -0.21530 -0.24152 -0.02594 -0.07251 0.14989
a 0.11559 0.30192 -0.11465 0.01001 -0.03219 -0.10755 0.06067 -0.10477 0.17488 0.00811 -0.02263 0.06540 0.11330 0.05474 -0.06209 -0.02982 -0.16608 0.12224 0.04525 0.21340 0.02796 -0.03132 -0.25392 -0.20146 -0.19688 -0.01525 -0.27038 0.10511 0.07423 0.01554 -0.01404 0.16516 -0.17375 -0.01674 0.01392 0.01119 -0.12599 -0.11975 0.07958 -0.03709 -0.07166 -0.08515 -0.11170 0.02014 -0.16100 0.00191 0.13843 0.15445 -0.02640 -0.01458 0.00060 -0.19382 0.11267 0.03503 -0.01410 0.11427 -0.09381 -0.04810 -0.00574 0.18635 -0.13767 -0.25908 0.21259 -0.18934 -0.06660 -0.36531 -0.30730 -0.05415 -0.01777 0.05371 -0.20850 0.04394 0.01180 -0.04343 0.05670 -0.08713 0.04967 -0.00981 0.09869 0.04472 0.09093 -0.08806 0.05772 -0.19914 0.12831 -0.07628 -0.11602 -0.04313 -0.27085 -0.09640 0.04610 -0.05763 0.12419 -0.09416 0.08839 0.01580 0.05768 0.17910 -0.16668 -0.00556 -0.28134 -0.01214 0.13262 0.15771 0.02328 0.04993 -0.13790 0.17804 0.03210 -0.00905 -0.15264 -0.05866 -0.08772 0.02890 -0.04167 -0.30451 0.22190 -0.00363 0.07720 0.12785 0.12945 0.07358 -0.02712 0.36309 0.02654 -0.06058 0.01665 0.05282 -0.03920 0.10092 -0.06068 0.13919 0.07580 0.04237 -0.13606 -0.09335 -0.07064 -0.07163 0.15919 0.12709 -0.05360 0.10054 0.14635 -0.02885 0.12329 0.31595 -0.07475 -0.01379 -0.08200 -0.08413 -0.09866 0.04079 -0.14104 -0.19548 -0.12146 0.01747 0.21902 0.03179 0.16661 0.03361 -0.26427 0.28180 -0.21657 0.07194 0.31303 -0.04357 0.08192 0.02780 0.12997 -0.22937 -0.25916 -0.02843 -0.07480 -0.20992 -0.07308 0.02569 0.10352 0.16966 -0.05254 -0.04978 0.10966 0.20609 -0.03378 0.21358 -0.09675 0.17156 0.16477 -0.14704 0.03029 0.05513 -0.04451 -0.39971 0.39786 0.35765 0.05016 -0.16500 0.15778 -0.02977 -0.16378 -0.07473 0.13908 0.07880 -0.07814 0.17880 -0.20376 -0.26927 -0.16764 0.13233 0.07399 -0.02286 0.19895 0.03604 -0.09079 -0.00986 0.05164 -0.23021 -0.10299 -0.25354 -0.25051 -0.07514 -0.17881 -0.00197 -0.08000 0.21553 0.15182 -0.02071 -0.12492 0.11649 0.01981 0.07340 0.15539 0.02699 -0.11933 -0.03068 -0.16556 0.09226 0.00494 -0.07379 -0.05539 -0.08274 -0.13011 0.01352 0.01819 -0.00554 0.05881 0.16387 0.15175 0.00694 0.03818 -0.06130 0.04570 -0.02571 0.00916 0.02157 -0.06074 0.10785 -0.08832 -0.12451 0.17643 -0.06926 -0.05568 0.20550 0.15244 0.01675 -0.15624 0.03946 0.07846 0.08925 0.02380 -0.25402 -0.22407 0.07923 -0.14890 -0.00131 -0.22940 -0.12029 0.17867 0.07129 0.12154 -0.11576 0.13246 0.01454 0.04327 -0.07618 0.04414 -0.14924 0.10415 0.21987 -0.08950 -0.00718 -0.02026 -0.18694 -0.06559 -0.20223 -0.12218 -0.29798 0.03427 0.11048 0.13074 0.04116
is 0.03593 0.14517 0.11926 0.07884 -0.04775 0.10096 0.09082 -0.22176 -0.09509 -0.02261 0.00765 0.04377 0.05105 -0.09738 -0.03745 0.04531 0.00088 -0.12497 0.02966 0.06983 -0.16091 0.17420 -0.32899 -0.18290 -0.00654 0.05893 0.01955 0.19681 -0.14456 0.08574 -0.07196 0.37732 -0.34039 0.02765 0.01237 -0.15959 -0.14646 0.16194 0.09252 -0.08764 -0.05937 -0.01036 -0.07417 0.05692 -0.10949 0.28542 0.19264 0.01048 -0.05483 -0.03050 0.06813 -0.04919 0.11643 -0.10180 0.10541 0.09638 0.30352 0.09890 0.16109 0.15746 0.08587 -0.12660 0.08661 -0.01252 -0.06009 0.05805 -0.19545 0.02977 0.13530 -0.05494 -0.09761 0.04160 0.19329 -0.07127 -0.40640 -0.07516 0.03747 0.24462 0.06833 -0.08249 -0.04681 0.12907 0.08508 -0.26625 -0.08998 -0.18727 -0.19797 0.12161 -0.12957 -0.07464 0.26606 0.21286 0.13707 -0.22089 0.06105 -0.25247 0.12172 0.17021 0.14249 -0.05975 -0.22905 0.06948 0.07539 0.05446 0.02578 -0.07938 -0.23297 -0.05632 0.08566 -0.13863 0.01085 0.11964 -0.29033 0.05700 0.10546 -0.09129 0.15602 0.16682 0.19723 0.06838 0.25218 0.12906 -0.11976 0.36511 0.04613 0.14922 0.11582 0.15174 0.06629 0.04136 -0.11032 0.03448 0.08709 0.06760 0.02033 -0.08070 0.11125 0.07964 0.11820 0.14276 -0.16239 0.04805 0.20329 -0.18650 0.06834 0.11872 -0.21844 0.08097 0.11576 -0.08620 0.01664 -0.07335 -0.01796 -0.03610 -0.01320 -0.07948 0.11069 -0.04557 0.53583 -0.01107 0.08171 0.17232 -0.24410 -0.04037 0.32503 -0.00452 -0.02362 -0.13361 0.11442 0.13294 -0.13098 -0.20130 -0.08463 0.05579 0.02458 -0.03106 0.17107 0.01638 -0.00708 -0.03892 -0.04122 0.13561 0.04514 0.39547 0.08460 0.12960 0.07409 0.05013 0.13505 -0.06910 0.00420 -0.19653 0.05223 0.21959 0.07653 -0.13691 -0.09008 0.03959 -0.19713 0.08861 0.05296 -0.15249 -0.34548 0.07447 -0.27969 -0.07452 -0.21438 0.14577 0.18846 -0.12055 0.19297 0.08992 0.11085 0.23914 -0.05818 -0.15256 -0.05000 -0.29806 -0.16428 -0.05303 0.05737 -0.12154 -0.27410 -0.12438 0.30366 0.00388 -0.11727 0.30079 -0.01404 0.00519 0.01441 0.05602 -0.24088 0.03485 -0.17190 -0.04236 -0.17468 -0.23828 -0.01852 -0.01501 -0.21179 0.16822 0.12561 -0.11843 0.29393 0.30496 0.36829 -0.00164 0.13448 -0.17843 -0.04114 0.29053 -0.03382 -0.04984 -0.10897 0.05766 -0.00520 -0.12193 0.18452 -0.04350 0.13090 0.32408 0.04928 -0.12412 -0.23473 -0.06510 -0.13250 0.36398 0.02273 -0.15708 -0.05817 0.11844 -0.01185 0.04369 0.03963 -0.26053 0.32672 0.17928 0.11030 -0.04521 0.22146 0.15149 0.06116 -0.05558 -0.07531 -0.10055 0.11615 0.19411 -0.10141 0.21326 0.04032 -0.27410 -0.11633 -0.08942 -0.07275 -0.26043 0.08425 -0.00161 0.17080 -0.03551
was -0.11286 -0.00661 -0.11885 0.20306 -0.06451 0.07232 -0.09381 -0.15525 -0.03619 0.34825 0.23176 0.05998 -0.09259 0.09224 0.01470 -0.21753 -0.07676 -0.15456 -0.18715 0.26336 -0.00073 0.20193 -0.15488 -0.17919 -0.23805 0.07198 -0.12965 0.06931 0.20514 0.20612 -0.14140 0.09939 -0.19516 0.10549 0.05097 -0.15156 -0.13718 -0.01071 0.34531 -0.03724 -0.03744 -0.11631 -0.22042 0.14635 -0.08951 -0.18981 0.07434 0.21624 -0.05004 0.07958 0.02683 0.00796 -0.15662 0.02824 -0.00060 0.00425 0.16613 0.29875 0.17000 0.12054 0.22972 -0.04953 -0.02960 0.08727 0.12155 0.00997 -0.17588 0.01403 -0.31022 -0.08454 -0.05242 0.02653 0.01161 -0.12440 -0.06912 0.03300 -0.14902 0.15951 0.17411 -0.19272 0.04991 -0.01068 0.24032 0.07634 0.04781 -0.16769 -0.32590 0.08158 -0.16958 -0.14046 -0.06200 -0.17957 0.10318 -0.20991 0.09716 -0.04893 -0.13686 -0.07455 -0.15368 -0.10308 -0.11061 0.23124 0.10074 0.06370 -0.08351 -0.07046 -0.11517 0.19426 -0.04978 -0.03644 0.19497 0.07969 -0.04629 -0.05838 0.14444 0.02144 0.07514 0.32819 0.05410 0.17631 0.18208 0.25938 -0.17430 0.43839 0.08280 -0.00031 0.02842 0.21006 0.06050 0.08836 -0.22041 0.08573 0.16730 0.04969 0.06248 -0.11094 -0.05017 0.02438 -0.14511 0.30282 -0.00548 -0.06953 0.05900 -0.14639 0.08187 0.25299 -0.09953 -0.10847 0.09228 0.15620 -0.00098 0.09746 -0.04559 0.12910 -0.13820 0.01566 -0.07723 -0.06955 0.40012 -0.20293 -0.18922 0.08200 -0.14097 0.06987 0.32663 0.04148 0.16718 0.10447 0.34784 0.14208 -0.15894 0.07473 -0.08773 0.17719 -0.02220 -0.18665 -0.09648 0.11452 -0.23160 -0.04963 -0.07288 0.19536 -0.24638 0.26485 -0.17163 0.18342 -0.04048 -0.05923 0.01146 0.09859 -0.10773 -0.34245 0.00813 0.31403 -0.02537 -0.07575 -0.03759 -0.01081 -0.13641 -0.21098 -0.07024 -0.10866 -0.27110 0.10050 -0.16853 0.03463 0.02588 0.19574 0.42803 0.13828 0.37806 -0.17652 -0.04256 0.15672 -0.02462 -0.06703 -0.22909 -0.17072 -0.27418 0.10913 0.19061 -0.07551 -0.30311 0.03897 0.18328 -0.01071 0.01811 0.12733 0.00198 0.05687 0.04111 -0.12846 -0.09344 0.06638 -0.14303 -0.10907 0.04475 0.12788 -0.13665 0.12689 -0.02960 0.09640 0.14338 0.13761 0.08036 -0.11623 0.19873 -0.23223 0.12289 -0.17505 0.07804 0.12652 0.16914 -0.01077 -0.07186 -0.06545 -0.21393 0.05029 -0.16871 0.21748 0.11810 0.03919 -0.04936 -0.17246 -0.28750 0.19038 0.01279 0.11273 0.12702 -0.12684 -0.30546 -0.07344 -0.11727 -0.01119 -0.10072 -0.34174 0.37268 0.30180 0.25786 -0.18669 0.10741 -0.11652 -0.09117 0.05136 -0.06534 -0.03840 -0.05119 0.24759 -0.06801 -0.20843 0.12345 -0.05401 -0.26918 -0.00034 -0.02199 0.06382 -0.08483 0.09236 -0.06367 0.05429
on -0.02994 0.08308 -0.04104 0.06226 -0.01905 -0.07050 0.10458 -0.11022 -0.05283 -0.21471 -0.01028 0.01125 0.04427 -0.12704 0.13873 -0.10672 -0.03104 -0.03672 0.03802 0.14331 -0.15955 -0.01040 -0.30636 0.00181 -0.21795 -0.19619 0.15655 -0.26115 0.06801 0.00548 0.01827 0.27194 -0.06378 0.05058 -0.03923 -0.22498 -0.21599 0.02811 0.27633 -0.19207 0.08309 0.06648 -0.04957 0.12438 -0.22175 -0.02448 0.00924 0.03976 0.03033 -0.30435 0.05965 -0.18663 0.05263 0.00404 0.02135 -0.08179 -0.01290 0.05181 -0.10407 0.25295 -0.00835 -0.21269 0.19349 -0.25011 -0.17148 -0.25245 -0.02836 0.00977 0.01036 0.20992 0.09411 0.04599 -0.10821 -0.12871 0.01786 0.01645 0.35166 0.23680 0.08712 0.00142 0.07633 0.02870 0.18740 0.09740 0.07169 -0.20054 -0.15180 -0.18455 0.24700 -0.24415 -0.09985 0.22032 0.28422 -0.26721 0.18074 0.14100 0.02439 -0.10740 -0.12624 -0.02788 -0.14301 -0.09683 -0.12930 -0.03152 -0.12661 -0.03681 -0.06135 0.29519 -0.03723 0.24504 0.10346 -0.13672 0.09334 -0.05371 -0.05604 0.10644 0.08505 0.02639 -0.12120 0.02075 0.36126 0.13563 -0.11141 0.27515 -0.02193 -0.03335 0.26127 0.32768 0.16539 0.26570 -0.11442 -0.10774 0.02750 0.20596 -0.26000 -0.17816 -0.07020 0.00294 0.03060 0.03697 -0.11377 0.26168 -0.20023 -0.08699 -0.04293 0.13088 0.26097 0.00672 -0.28677 0.27120 -0.25236 -0.25750 -0.39759 0.01724 0.15021 -0.17865 -0.06173 -0.07871 0.13485 -0.11931 -0.14540 0.10977 -0.25129 0.12937 0.23836 0.17370 -0.04656 -0.08308 0.12602 -0.14134 -0.27256 0.19661 -0.26557 -0.17845 -0.18839 -0.04431 -0.05172 0.06620 0.14214 -0.04750 -0.17975 0.02450 0.08970 0.02366 0.12270 0.34950 0.14525 -0.17002 0.12992 -0.03613 0.01365 -0.29350 0.02119 0.02740 -0.03596 0.03036 0.03694 0.10434 -0.34108 -0.22907 -0.10944 0.18918 -0.06642 -0.04711 0.03805 -0.13913 0.06518 -0.06290 0.31345 -0.09036 0.44221 0.08802 -0.08561 0.03171 0.00275 0.21896 0.00565 -0.45227 -0.11961 -0.12665 0.23553 -0.08946 -0.03103 0.14073 -0.13621 0.02576 -0.23421 0.04172 0.02658 0.14901 0.35331 0.16014 -0.08580 0.10075 0.11963 0.08398 -0.00852 -0.10134 0.02587 0.00199 0.11903 0.09090 0.31105 0.09314 0.26736 0.29493 0.03174 -0.06166 0.25909 0.25553 0.21146 -0.03673 0.12690 0.04016 -0.15194 0.12897 -0.49793 -0.00309 -0.06297 0.09004 0.34313 0.17949 -0.11345 0.14079 0.07360 -0.15301 -0.04605 0.14508 -0.25676 -0.13020 -0.10335 -0.05312 0.04272 0.24057 -0.18248 -0.14799 0.01282 0.26499 0.03838 -0.04184 0.22512 0.08287 -0.21517 0.10090 0.11119 -0.09656 0.07562 -0.07808 0.15468 -0.19181 0.14994 -0.04455 -0.11669 -0.17937 0.36259 -0.16617 0.13773 0.03637 -0.04814 0.00147
s 0.03846 -0.11291 -0.17323 -0.03041 0.15791 -0.01914 0.00192 -0.11037 -0.07646 0.12753 0.11781 -0.13902 0.09916 0.11020 0.06456 0.08661 0.00327 -0.00874 -0.17398 0.05412 -0.28031 0.18313 -0.06987 -0.19947 -0.17661 -0.01755 -0.04970 -0.01524 -0.01680 0.19059 -0.16898 0.52075 -0.14446 0.05771 -0.07005 -0.13201 -0.08584 0.01959 0.18062 -0.37744 0.20453 0.01859 -0.23324 0.15698 0.13667 -0.12350 0.03066 0.20784 0.16087 0.17465 0.06365 -0.06554 0.09635 -0.09433 -0.25684 0.18813 0.05743 -0.07313 0.00778 0.11959 0.12944 -0.25971 0.13682 -0.01602 -0.37095 0.06667 0.08206 -0.10501 0.11285 -0.03876 0.16821 -0.07263 -0.05139 -0.38610 -0.13619 -0.11603 0.12859 0.17121 0.03961 -0.08127 0.19590 0.05611 0.09162 0.04370 -0.18668 0.03327 -0.13498 0.41510 -0.25299 -0.18425 -0.01495 -0.03808 0.16609 -0.00641 0.06609 0.02267 0.04381 0.06055 0.08001 -0.17192 -0.13464 0.00554 0.06838 0.04762 -0.23787 -0.12178 -0.17201 0.22628 0.17626 0.14631 0.00433 -0.03651 -0.12546 -0.01660 0.00259 0.14845 0.14535 0.23339 0.05838 0.08476 0.09906 0.15039 0.18396 -0.04056 0.16400 0.01755 0.12023 0.13814 -0.15704 0.03994 0.16100 0.25549 0.18153 0.02078 -0.09425 -0.10346 -0.28616 0.04485 -0.07012 0.01281 -0.05104 -0.09449 -0.15318 0.04100 -0.09327 0.16232 0.22330 0.03406 -0.05528 -0.03975 -0.07281 0.05650 -0.14058 -0.04418 -0.16488 0.05283 0.08652 -0.07687 -0.03992 0.27809 -0.12430 0.20393 0.00120 0.25289 0.14898 0.03395 0.15503 0.05345 0.26140 -0.04575 -0.08447 -0.14395 -0.18902 -0.13388 -0.12626 0.13108 -0.01951 -0.02418 -0.03678 -0.13597 0.22259 -0.04084 0.09563 0.21741 -0.21438 -0.02331 0.14670 -0.16684 0.23378 0.09493 0.02054 -0.06098 0.08581 0.10767 -0.07694 -0.06134 0.00676 -0.05050 -0.34804 0.05015 0.01536 -0.06195 0.01067 0.07174 0.06038 -0.31371 -0.04367 0.05764 0.14199 0.05928 0.51126 -0.14883 -0.03615 -0.12154 0.04174 -0.11368 0.13902 -0.36065 -0.14418 0.03354 -0.23366 -0.07289 -0.21204 0.06612 -0.19825 -0.03010 -0.09178 -0.06168 -0.05445 -0.06956 0.03128 0.18651 0.04057 -0.15240 -0.13553 0.25094 0.16633 -0.06056 -0.03753 -0.10264 -0.07571 0.06402 0.05656 0.05505 0.12962 0.08127 0.09888 0.13312 0.01977 0.09386 0.13799 0.06692 0.12089 0.14025 0.05705 -0.02154 -0.11202 -0.15134 0.01202 0.00085 0.18794 -0.02294 0.12724 0.14248 -0.01524 -0.07536 0.15065 0.11984 0.16618 -0.35692 -0.24740 0.09196 0.04272 0.21117 -0.07201 -0.06483 0.39984 0.27504 0.26081 0.03626 -0.00093 0.09714 0.11537 -0.08762 0.14525 0.19174 -0.03000 0.21575 0.03284 -0.28628 0.00611 -0.10856 0.04047 -0.12915 -0.15099 -0.30803 0.00945 0.18243 -0.07186 0.09405
for -0.04346 0.11336 -0.09021 0.10783 -0.12458 0.01056 -0.05375 0.04069 -0.07198 0.12988 0.18367 -0.19067 0.23183 0.25260 0.17690 -0.06800 -0.03202 -0.09196 0.13500 0.14054 0.11034 0.21687 -0.07298 -0.15426 -0.03326 0.02605 0.16755 0.03061 -0.11283 0.08846 -0.29436 -0.01799 -0.18437 0.08659 0.20259 -0.09232 0.04665 -0.10229 0.07146 0.06979 -0.13052 -0.01441 -0.05637 0.15818 -0.02005 -0.10617 0.23458 0.00351 -0.14388 -0.01862 -0.06964 -0.21530 -0.11409 -0.10171 0.02978 -0.04675 0.20507 0.00678 -0.13647 0.00706 0.04308 -0.09774 0.33185 -0.24975 0.11143 0.02750 -0.02089 -0.15535 -0.20601 -0.02640 -0.11679 -0.04121 0.05213 -0.14148 -0.24781 -0.04643 0.30543 0.04925 0.17925 -0.04808 0.08029 0.27301 -0.14418 0.02108 0.01349 -0.24578 -0.25759 0.02698 -0.22953 -0.15100 -0.12973 -0.04690 0.36185 -0.21275 -0.02874 0.22011 -0.10697 0.03538 -0.24997 -0.12608 0.02006 -0.24323 0.41437 -0.18490 -0.20688 0.18755 -0.14810 0.19374 -0.23983 -0.07231 0.05088 -0.06853 -0.23756 -0.06688 0.02785 -0.10642 0.06565 -0.12159 0.01709 0.00737 0.25959 0.26045 0.05063 0.33932 0.06046 0.08284 0.20087 -0.00746 0.03576 0.22386 0.09779 0.25052 -0.30139 0.08582 0.02356 0.06716 -0.10683 -0.20434 0.02177 0.13849 0.08889 0.06483 0.24942 -0.12314 0.21898 0.09290 -0.06662 0.00437 0.10442 -0.01168 -0.18587 -0.15274 -0.10520 0.05671 -0.07761 -0.09806 0.08235 -0.19676 0.07349 -0.16567 -0.12771 0.06803 -0.05014 -0.00668 0.22982 -0.00975 0.01318 -0.17115 -0.08571 -0.09422 -0.21663 -0.18938 -0.15326 -0.06440 -0.12948 0.12967 -0.04457 0.16996 -0.11774 -0.29034 -0.13500 -0.13239 -0.02052 0.06912 -0.35345 0.04146 -0.05473 0.08254 -0.03028 -0.02365 -0.00777 -0.21236 0.19582 0.02146 0.01387 -0.12292 0.00912 -0.03678 -0.07784 0.21115 -0.20513 0.00203 -0.06241 -0.08691 -0.07056 0.16280 -0.15556 0.05162 0.32346 0.08533 0.27287 0.00543 -0.08206 -0.15807 0.12814 -0.01772 0.02231 -0.15821 -0.02088 0.00389 -0.03775 -0.05305 0.04316 -0.22103 -0.03793 0.20364 0.00691 -0.01994 -0.01418 -0.08021 0.06050 0.22816 -0.32799 -0.26871 -0.05456 0.18140 0.00990 -0.05557 -0.09991 0.05717 0.13378 0.12753 0.03402 0.08418 0.17292 0.26984 0.19024 -0.09584 -0.04827 0.26195 0.02692 -0.05813 -0.03534 0.14691 0.09446 0.12350 -0.32641 -0.10359 0.05758 0.13550 0.03454 0.16175 0.13866 0.07793 -0.09004 0.08570 -0.07606 -0.10881 -0.07918 -0.02582 -0.31328 -0.03586 -0.11864 -0.02846 -0.22913 -0.09151 0.06633 0.30559 0.05000 -0.03079 0.24058 0.05689 0.04392 0.13876 0.11531 -0.00499 -0.00940 0.10540 -0.18862 0.24032 0.07165 -0.05263 0.09392 0.00191 -0.05347 -0.23075 0.14242 0.11643 0.09012 -0.06771
as -0.10668 -0.03652 -0.10630 0.06347 0.11089 0.05680 0.19817 -0.00048 0.11510 0.12766 0.02572 -0.09617 0.08485 -0.20034 0.16011 -0.13566 0.12913 -0.03648 -0.00136 0.00526 -0.18697 0.15282 -0.08500 -0.16923 -0.04545 -0.03152 -0.04238 -0.11903 -0.05374 0.00775 -0.10079 -0.00149 -0.23998 0.20515 -0.02396 0.03907 -0.05025 0.01369 0.07491 -0.31991 -0.07934 0.14457 -0.15161 0.00476 -0.09550 -0.12307 -0.08530 0.25123 0.27485 -0.02211 -0.03888 0.08371 -0.02285 0.07903 -0.08470 -0.01582 0.03043 0.00469 -0.23436 0.21580 0.04292 -0.16513 0.07844 -0.29170 -0.02158 -0.04550 0.00784 -0.19502 -0.10830 -0.01386 -0.25153 -0.03689 -0.03831 -0.21965 -0.01619 -0.13470 0.12681 0.11563 0.20419 -0.10326 0.26979 0.04064 -0.07922 -0.14890 0.03940 -0.18841 -0.08122 0.20854 -0.42372 -0.09284 0.02847 -0.06421 0.12222 -0.08628 0.16448 -0.02939 -0.08983 0.12399 -0.21450 0.05964 0.01600 -0.27254 0.17223 -0.05487 -0.04919 -0.00752 -0.08916 -0.00492 0.10274 -0.21427 0.01989 -0.10638 -0.22215 -0.02742 0.08864 -0.01311 0.16812 0.05827 -0.02901 -0.13752 0.20446 0.16461 -0.25531 0.24799 -0.17534 -0.10730 0.12386 0.16596 -0.02510 0.06084 -0.06466 0.13571 -0.03546 0.08458 0.11602 0.12394 -0.11460 0.00923 0.02447 0.21552 -0.08662 0.05870 -0.03065 -0.11282 0.21441 0.20956 -0.05368 0.17708 -0.04087 -0.06888 -0.03951 -0.08224 0.02666 0.00220 -0.17169 0.17174 -0.17123 0.00270 0.32867 0.11802 -0.20242 0.06429 -0.27296 0.17342 0.10837 -0.19019 -0.08814 -0.31898 0.13042 0.25379 -0.18172 -0.00344 -0.20740 -0.17084 -0.18809 -0.06701 -0.00778 0.12018 0.05561 0.06290 0.05195 0.03256 0.06471 0.16043 0.01089 0.26701 0.15682 -0.19018 0.17844 0.03764 -0.09412 -0.27920 0.00625 0.20934 0.15969 -0.00517 0.02964 -0.03413 -0.15754 0.08945 -0.12987 0.15607 -0.00632 0.15625 0.17861 -0.12055 -0.20331 0.19912 0.08471 0.10501 0.52838 -0.07657 -0.10239 0.11299 -0.02985 -0.07726 0.06368 -0.20756 -0.06305 -0.04250 -0.04160 0.02283 -0.21428 0.04613 -0.05007 -0.22019 -0.02110 -0.06443 0.01437 0.05819 0.20217 0.11436 -0.07282 -0.12266 -0.20333 0.27137 0.13923 0.05540 -0.00665 -0.00197 0.14431 0.16829 -0.06663 0.20795 0.13077 0.08167 0.07630 -0.14139 0.02582 0.02077 0.15200 0.01946 -0.07962 0.11885 -0.03258 0.12693 -0.15425 -0.19208 -0.08998 -0.18192 -0.07619 0.09631 0.08475 -0.07712 -0.15407 -0.40903 -0.24080 0.27727 0.07001 -0.23642 -0.26462 0.09025 -0.08353 -0.05576 -0.00444 -0.18702 0.34108 0.17177 0.03901 0.01481 0.20067 0.01475 0.03399 0.04635 -0.05545 -0.04778 -0.00840 0.29187 0.20870 0.04187 -0.08530 0.01760 0.03892 -0.04220 -0.11009 -0.11966 -0.03210 -0.00878 -0.00006 0.13576
by -0.13167 -0.04082 -0.23956 0.23064 -0.12696 0.11678 0.10581 -0.20413 0.00804 0.23646 -0.05411 0.12133 -0.15008 0.11509 0.11896 -0.25209 0.10367 -0.06506 -0.08037 0.12708 -0.01466 0.22690 -0.28552 -0.09668 0.06333 -0.03371 0.01759 0.02816 0.15469 0.03351 -0.23307 0.09128 0.02314 0.13172 0.20120 -0.08000 -0.25302 0.00330 0.23424 -0.09445 0.06577 -0.00288 0.00034 0.19717 0.03345 -0.20442 0.00105 -0.01086 -0.15341 0.06585 0.12561 -0.04062 -0.27178 -0.02428 0.08033 0.02283 -0.09738 0.18855 0.01105 0.03805 -0.02144 -0.21974 0.00351 0.20461 -0.00755 0.16733 -0.10361 -0.18865 0.03129 -0.08182 -0.11796 -0.00905 -0.16731 -0.27503 0.04764 -0.03310 0.11845 0.14352 0.15145 -0.04716 -0.09904 0.04206 0.17922 0.22662 -0.08102 -0.06630 -0.19108 0.09263 0.00249 -0.06527 -0.14996 -0.11355 -0.07814 -0.13441 0.29873 -0.06062 0.10540 -0.11155 0.02694 0.04890 -0.10103 -0.01086 0.24963 -0.08794 -0.09912 -0.11480 0.14520 -0.11545 0.33225 -0.14523 0.07761 -0.09961 -0.06817 -0.05033 0.04969 0.17082 0.28300 0.37630 0.00201 0.14755 0.07047 0.31503 -0.47475 0.38828 0.05898 0.06260 0.14044 0.12980 0.12159 0.12610 0.19995 0.23574 0.13194 0.25251 0.37902 -0.00494 0.10706 -0.01637 -0.12881 0.04987 0.25352 0.12318 0.17736 -0.20315 -0.21117 0.09945 0.01791 0.01994 -0.01575 0.20934 0.07112 -0.14770 -0.14592 -0.11236 -0.09464 -0.16884 -0.16842 -0.07205 0.17637 0.10100 -0.10587 -0.08613 0.02419 0.01144 0.30690 -0.07151 0.17903 0.11991 0.28315 -0.00104 -0.18539 0.19078 -0.09384 0.06167 -0.10506 -0.02850 0.01504 0.17677 -0.00470 -0.12370 -0.11957 -0.33566 -0.35805 0.17801 0.09083 0.21286 0.01397 -0.28891 0.05623 0.02197 -0.09433 -0.36791 0.23437 -0.08250 0.13699 -0.41778 -0.21958 -0.10984 -0.16532 0.03268 0.08723 0.24120 -0.21436 0.01984 -0.06373 -0.07348 -0.21645 0.20205 0.21141 -0.03102 0.57300 -0.03214 0.03985 -0.05959 -0.00367 0.07042 0.15985 0.03150 -0.18282 -0.03604 -0.01486 -0.39543 -0.40932 -0.02701 -0.04227 -0.04763 -0.28248 -0.19428 -0.01924 0.24395 -0.21907 0.01141 -0.12631 0.14487 -0.03658 -0.06265 -0.00848 0.07644 -0.00557 -0.12415 -0.07852 -0.14686 0.12963 -0.11216 -0.00122 0.02760 0.01754 -0.21690 0.15463 0.14615 0.12645 0.00582 0.13580 -0.22443 -0.21958 0.21090 -0.09850 -0.06689 -0.17394 0.01730 0.19829 -0.09862 -0.03713 -0.04402 -0.23748 -0.21127 -0.02350 -0.13315 0.01175 0.00170 -0.15698 0.07815 0.02726 -0.17181 -0.15723 -0.23723 0.22997 0.35097 0.09251 -0.02186 0.00042 0.12900 -0.02802 0.03121 -0.06722 0.08744 -0.02704 0.24614 -0.17322 -0.03628 0.32144 -0.23934 0.13895 -0.01434 -0.06849 -0.06642 0.18929 0.32907 -0.11879 0.00310
that -0.23983 0.08583 -0.21831 0.19241 0.02520 0.12355 -0.00698 -0.17742 -0.02976 0.14019 -0.04131 0.02169 0.03167 -0.06650 -0.01011 -0.03978 0.05835 0.07796 0.10951 0.17083 0.03057 0.07517 -0.19127 -0.26914 -0.07159 -0.00333 0.16572 0.24140 -0.03783 0.09299 -0.09632 -0.05336 -0.13769 0.20230 0.12228 0.00551 -0.12261 0.06598 -0.09383 -0.00479 0.06050 0.03447 -0.08981 0.04968 0.10915 0.19243 0.09747 -0.05911 -0.03156 0.00856 -0.00974 -0.15660 -0.03045 -0.03733 -0.21254 0.01653 -0.10968 0.14795 -0.00803 0.06314 -0.17479 -0.08014 0.16124 -0.07198 0.12406 -0.26999 -0.17197 -0.05886 0.04619 -0.07601 -0.07425 -0.03989 0.05774 -0.19435 -0.10719 0.07577 0.16442 0.06296 0.01700 0.09807 0.05191 0.00796 0.04977 0.07482 -0.16363 0.06747 -0.10452 0.07356 -0.10755 -0.14250 0.08911 0.15841 0.32220 -0.10655 0.08362 -0.09249 0.21919 0.04821 -0.06149 0.04920 -0.06286 -0.13971 0.05926 -0.11582 -0.21935 -0.13681 -0.11235 -0.09635 0.04686 0.03507 -0.11585 -0.02362 0.08066 0.02849 0.06903 -0.18985 0.26623 0.17579 -0.03507 -0.03164 -0.02622 0.14236 0.03976 0.38528 0.03830 -0.01017 0.11729 0.11932 -0.05096 0.22691 -0.17552 0.01645 -0.04700 -0.08370 0.06962 0.01425 -0.10832 0.12289 0.01607 -0.03390 0.10722 0.20054 0.14020 -0.10011 -0.07931 0.12327 -0.00314 -0.08944 -0.08605 -0.10393 0.03268 -0.14476 -0.05683 -0.03472 -0.09505 -0.17064 -0.03592 0.08630 0.17825 0.06376 -0.12496 0.21052 -0.28584 0.15253 0.13151 0.07639 0.02964 -0.09360 0.12136 0.01979 -0.11168 -0.14822 -0.27724 -0.02827 -0.09676 0.14834 -0.13155 0.19224 -0.01796 -0.10059 0.10913 -0.15540 0.00514 0.24523 -0.21236 0.11514 0.08390 -0.09745 0.21907 -0.18487 0.02478 -0.35162 0.13614 0.13062 -0.08604 -0.02390 0.06012 -0.00350 -0.29560 -0.05549 0.19128 0.09624 0.04410 0.09739 -0.07393 -0.13039 -0.06372 -0.00423 0.10625 0.03597 0.30975 -0.03718 0.15494 -0.06503 0.19122 -0.00462 -0.02480 -0.21901 0.01220 0.18168 -0.21881 -0.15599 0.02621 0.03849 -0.20256 -0.03028 -0.18647 0.04999 -0.18815 0.01836 0.20436 0.07224 -0.03457 0.05682 0.02754 0.19926 0.18312 -0.07049 0.23106 0.01389 0.04590 -0.07082 0.10671 -0.04926 -0.13885 0.20777 0.12232 0.09224 0.00885 -0.05879 0.19882 0.19537 -0.15112 -0.01762 -0.04028 0.02894 0.03926 -0.05510 -0.00823 -0.11584 0.08130 -0.00473 -0.08573 -0.14999 -0.09498 -0.13686 -0.15080 0.12912 -0.12408 -0.11013 -0.18316 -0.05048 0.25119 0.14707 -0.15924 -0.12625 0.19323 0.06635 0.14201 -0.03284 0.04996 -0.06327 0.11500 -0.28184 -0.00534 -0.06219 0.06766 0.23157 -0.04726 0.03623 0.17711 0.04421 0.05787 0.03103 0.03412 -0.22109 -0.11154 0.20510 0.06195 -0.15744
it -0.33660 0.13889 -0.06833 0.00791 -0.02002 0.09343 0.10182 -0.21510 -0.18844 0.15148 -0.14284 -0.11377 0.11161 -0.23444 0.02826 -0.06204 0.21756 0.09565 0.16980 0.07168 -0.05438 -0.04609 -0.21987 -0.27494 -0.25339 -0.10972 -0.00704 0.03357 0.12896 0.18848 -0.25815 0.17061 -0.38947 0.34810 -0.04105 -0.12456 -0.08632 -0.19126 0.02259 -0.12725 -0.13036 0.09814 -0.23390 0.00816 0.18667 0.20999 0.06371 -0.02851 -0.05472 -0.11117 -0.01053 0.00701 -0.00415 -0.03682 -0.00369 0.07841 0.00383 0.26416 -0.06283 0.22119 0.06265 -0.14575 0.18947 -0.09880 -0.03843 -0.24093 -0.10867 -0.08952 0.12916 0.05978 -0.01512 0.14633 0.03221 -0.15511 -0.17298 0.08858 -0.08154 0.27585 -0.04094 0.15529 -0.08345 -0.07010 0.15480 0.19894 -0.09473 0.11057 -0.18328 0.00020 0.03252 -0.07604 0.05150 0.18083 0.25092 -0.15933 0.14870 0.12631 0.15929 0.17724 0.01319 -0.08390 -0.22055 -0.01915 0.11560 -0.01097 -0.12785 -0.19002 -0.22735 0.01358 0.10532 0.05342 -0.03142 0.04568 -0.07916 0.07502 -0.19182 -0.04083 0.34173 0.17852 0.10964 0.00999 0.20740 0.10894 -0.17686 0.47952 0.15701 0.11366 0.15475 0.09857 0.09023 0.18289 -0.06289 0.01288 -0.11289 0.04772 0.04381 0.00652 0.03254 0.28292 0.06178 0.17045 0.04703 0.17219 0.10032 0.11206 -0.01936 0.07078 -0.02487 0.03691 -0.08589 0.18344 0.10946 -0.05685 0.09646 -0.16475 -0.05580 -0.15339 0.07300 -0.08122 0.23755 0.06937 -0.16822 0.22798 -0.37593 0.03476 0.15086 0.03181 -0.06975 -0.08961 0.12988 -0.01292 -0.02400 -0.25414 -0.19594 -0.15103 -0.21644 0.04507 -0.16032 0.00445 0.10350 0.14202 0.18504 0.00660 0.13737 0.13789 -0.04358 0.03206 0.06819 -0.14007 0.10683 -0.00968 -0.04368 -0.16244 0.11275 0.31780 -0.07020 0.11798 0.19411 0.02673 -0.29832 0.11729 0.06469 0.07844 -0.05966 0.21912 -0.01309 -0.26410 -0.10992 0.12463 0.13129 0.06607 0.18305 0.10516 0.15296 0.04007 0.16806 0.04335 0.03812 -0.21098 0.07237 0.10674 -0.05700 -0.16355 -0.00671 -0.13049 0.24781 -0.08304 -0.24073 -0.11134 -0.00946 0.09869 0.20597 0.17607 -0.20891 0.00301 -0.12683 0.08714 -0.03653 -0.14635 -0.11332 0.04392 -0.02312 -0.04106 0.29740 -0.16771 0.13906 0.13147 0.17896 -0.01710 0.05286 -0.05978 0.11522 0.25980 -0.18943 -0.06222 0.03448 0.00723 0.07801 -0.15113 0.17729 -0.11423 0.08786 0.07817 -0.11313 -0.19613 -0.05144 -0.03777 -0.15843 0.24705 -0.00826 -0.31003 -0.34136 0.10744 -0.02409 0.08179 -0.00249 -0.23679 0.21343 0.18235 0.10686 -0.22907 0.18638 0.01587 -0.24017 -0.20794 0.06250 -0.28062 0.05249 0.14059 0.00512 -0.04830 0.14975 -0.06022 -0.06307 -0.07755 0.04563 -0.15038 -0.02686 0.14517 0.02905 0.07499
with -0.06421 0.09171 0.11942 0.41860 0.17465 0.11941 0.31859 -0.16380 0.20565 0.08809 -0.04621 0.15331 0.15775 -0.09650 0.02273 -0.14138 0.00985 -0.02659 0.02118 0.22972 0.04253 0.02724 0.02314 -0.07987 0.04950 -0.06113 0.10546 0.08490 -0.10190 0.02544 -0.22593 -0.00945 -0.11316 -0.04548 -0.09911 0.00207 -0.24400 -0.20762 0.27893 -0.03060 0.25438 -0.04340 0.14100 0.04117 -0.02683 -0.07577 0.09987 -0.10857 0.05274 -0.00644 0.01467 0.02409 -0.14823 -0.07514 -0.17639 0.00590 0.00692 -0.05332 -0.11206 -0.06058 -0.01282 -0.31799 0.08790 -0.06242 0.04817 -0.00591 -0.01807 0.23661 -0.15310 0.00329 -0.12837 0.07543 -0.19725 -0.24712 -0.05086 0.10058 0.12841 0.25282 0.09728 0.01052 0.18361 -0.19749 -0.04044 -0.11185 -0.12698 -0.10152 0.02705 0.09550 0.14746 -0.19452 0.05516 -0.15004 -0.03968 -0.03980 0.34592 0.29379 0.24519 -0.09935 0.06081 -0.26003 -0.06174 -0.05527 0.11014 0.11766 -0.21546 -0.15467 -0.09198 0.11697 0.01287 0.04627 0.03336 0.03778 0.01989 -0.06419 0.07923 -0.12147 -0.02196 0.05893 0.03912 0.28289 0.22152 -0.09724 -0.25084 0.35717 0.14103 -0.09167 0.11790 -0.01729 0.00985 0.27560 0.15504 0.00820 -0.24424 0.13351 -0.04132 0.04073 0.17727 0.06979 0.10178 0.10530 -0.14727 0.20263 -0.05939 -0.02877 0.06349 0.18252 -0.00140 0.10274 -0.16481 -0.06671 0.13842 -0.27265 -0.19634 -0.16050 -0.07421 0.00182 0.10260 -0.04355 -0.00721 0.05531 -0.01469 0.22269 -0.01251 0.19233 0.02187 -0.11755 0.04092 -0.19110 0.09449 -0.11347 -0.00542 -0.11790 -0.15947 0.15329 -0.15299 0.09300 0.00572 0.24517 -0.22961 -0.10959 0.17229 -0.18358 -0.01270 0.05832 0.04026 0.31104 0.10125 -0.10340 0.08640 -0.05128 0.23686 -0.17961 0.20681 -0.07611 -0.00101 0.05569 -0.15005 0.19155 -0.26852 -0.06360 0.14674 -0.08456 0.12010 -0.01607 0.15589 0.03215 -0.19939 -0.10605 0.28825 0.29976 0.08000 -0.02887 -0.15065 -0.14277 -0.08095 -0.07314 -0.11025 -0.32096 -0.16664 -0.02429 -0.15989 -0.09325 -0.10673 0.21227 0.05883 -0.04037 -0.15165 0.12092 0.02580 0.13896 0.14107 -0.03477 -0.09878 -0.03708 -0.17420 0.15468 0.20271 -0.20160 0.00568 0.22209 0.06557 -0.04823 -0.00200 0.27749 0.05351 0.16785 -0.07292 -0.02503 -0.03041 0.10037 -0.08471 -0.15251 -0.04554 -0.07673 -0.18076 0.01952 -0.29083 -0.18053 -0.05321 0.03425 0.28543 0.19922 0.24063 -0.01772 -0.01760 0.24474 -0.01097 0.14306 0.06392 0.07402 -0.12698 -0.06771 0.02956 0.02517 -0.24510 -0.04662 0.14576 0.19015 0.22647 0.18612 0.08788 0.02785 0.28477 -0.05006 0.16087 -0.04350 0.07564 0.40270 -0.03846 0.19304 0.06372 -0.35619 0.17587 0.22165 0.07560 -0.05508 -0.03071 0.08836 -0.01598 -0.25735
from 0.07412 -0.24449 -0.20993 0.06771 -0.06905 0.02407 0.03965 -0.07554 0.14965 0.22772 0.23997 -0.15625 -0.13645 -0.16233 -0.13600 -0.04739 -0.22722 -0.02058 0.21853 -0.05774 -0.25380 0.07426 -0.43130 0.07079 -0.13236 0.00908 0.04138 -0.17293 -0.13688 0.04774 -0.09634 0.35734 -0.06407 0.31500 0.04326 -0.03983 0.26392 -0.00778 0.12460 -0.06213 0.04965 -0.19449 -0.10296 -0.13227 0.11914 0.11471 0.19222 -0.10544 0.19141 -0.19164 0.16664 -0.07209 -0.01712 -0.02409 -0.05492 0.18161 -0.41752 0.01385 -0.09755 0.14298 0.18272 -0.09517 0.25565 -0.00385 -0.06521 -0.00971 -0.51114 0.24172 -0.08495 -0.10739 -0.22902 0.00976 0.12840 -0.12305 -0.07209 0.12597 0.22261 0.12579 0.15230 0.06083 0.03796 -0.01294 -0.09039 -0.00342 0.07482 0.13059 -0.24917 0.06037 -0.20008 0.29940 0.02589 -0.10789 0.09243 -0.00286 -0.19491 0.23134 -0.02821 0.24770 0.15212 -0.08654 0.03533 -0.05743 0.14291 -0.03499 -0.09368 -0.21335 -0.41108 -0.16943 -0.04491 0.10779 0.24495 -0.00341 -0.16304 0.03706 -0.05880 0.07913 0.25461 0.16792 -0.10822 0.07862 0.31237 0.02162 -0.18460 0.31997 -0.21529 0.01994 0.22055 0.14881 0.31108 0.13899 0.17772 0.05433 0.08957 0.24212 0.11923 0.06240 -0.04901 -0.21631 -0.22720 -0.05317 0.05996 0.00244 0.20858 0.09573 -0.05451 0.23263 0.16189 -0.06137 0.03691 -0.02273 -0.07902 -0.31311 -0.08187 -0.02564 -0.22911 -0.41586 -0.07667 0.04393 0.00731 -0.03057 -0.19267 0.12633 -0.24819 -0.02016 0.34430 -0.03436 0.00006 -0.07209 0.32803 -0.28308 -0.20780 0.02866 -0.30940 0.07614 -0.08589 0.29858 -0.01297 -0.05299 -0.14979 -0.04495 0.07400 -0.16588 -0.28257 0.19357 0.04077 0.13921 0.11749 0.02963 0.02950 0.02532 -0.03940 -0.08709 0.31311 0.14639 -0.10493 0.07355 -0.09715 0.22761 -0.17507 -0.21137 -0.19015 -0.11867 -0.31333 -0.03911 -0.18574 0.11030 0.04919 0.21492 -0.23672 0.28303 0.10399 -0.11652 0.07139 -0.01309 -0.11487 -0.16952 0.11821 -0.16995 -0.02538 0.02897 -0.01138 0.00899 -0.10031 0.19524 -0.26482 -0.11916 -0.23742 -0.29037 0.07702 0.13313 0.18052 0.33469 -0.18892 0.05700 -0.22412 0.05739 -0.09285 -0.07324 -0.06644 -0.09772 -0.02681 0.05728 0.15477 0.04025 -0.15614 0.03547 -0.05528 -0.00169 0.15164 0.14045 0.02260 -0.02451 -0.02993 -0.02479 -0.23132 -0.00488 -0.09910 0.02104 -0.15909 0.20374 -0.12693 0.13554 0.39490 0.00045 -0.28062 -0.14170 0.03194 0.02340 -0.03491 -0.09426 -0.12416 -0.20251 -0.10164 -0.05866 -0.02026 0.05137 0.22868 0.20847 0.20915 -0.07355 0.23702 -0.07258 -0.00687 -0.04904 0.18509 -0.21591 -0.10739 -0.00683 0.09578 0.07057 0.06915 -0.02658 0.08738 0.14222 0.04483 0.06853 -0.17147 0.09720 -0.36452 -0.08174
at 0.08466 -0.22584 0.09645 0.10084 -0.32227 0.06084 -0.14098 0.04253 0.25177 -0.15139 0.28946 -0.22224 0.14715 0.21937 0.01764 -0.07588 -0.05454 -0.01997 0.02314 0.34317 0.19269 0.06061 -0.41196 -0.14237 -0.11288 -0.19504 0.10921 -0.06524 0.17814 0.22521 -0.14425 0.19108 -0.05125 0.35140 -0.03352 -0.10391 -0.15866 -0.04648 0.26894 -0.05465 0.02627 0.02452 -0.15300 0.00892 -0.10311 -0.06189 -0.07666 0.16422 0.19202 -0.15849 -0.10444 -0.32162 -0.01765 0.19714 0.06388 0.15029 0.27939 0.20403 -0.11719 0.11302 0.21741 -0.23783 0.22149 -0.09938 -0.15909 -0.23008 -0.16896 0.04809 -0.34688 0.07726 -0.26626 -0.16247 0.05348 -0.06490 0.01727 -0.16991 0.18329 0.20681 -0.07836 -0.19282 0.10032 0.23402 0.21734 0.16295 0.05686 -0.07151 -0.11856 0.06520 -0.00711 -0.06522 -0.02995 0.05182 0.42490 -0.18516 0.16310 0.06875 0.24889 0.00872 -0.16567 0.09758 0.09766 -0.05248 0.14066 0.09282 -0.06329 -0.10292 -0.26192 0.14551 0.08464 0.06938 0.21700 -0.07972 0.09623 -0.28020 -0.08848 -0.12311 0.30153 -0.08761 0.02693 0.02904 0.44256 0.07906 -0.02778 0.12976 0.06566 0.09800 0.26257 -0.06046 -0.07667 -0.02926 0.07976 0.05232 0.08960 0.07008 -0.20729 -0.11461 0.25130 0.06827 0.04642 -0.02161 -0.09478 -0.01131 0.06582 -0.03759 0.21715 0.07654 0.06959 -0.12947 0.07839 0.19481 0.06602 -0.32922 0.12043 -0.05412 -0.04392 -0.40659 0.13175 0.04270 0.12824 0.36509 0.01419 0.28955 -0.14103 0.14471 0.17529 0.26788 -0.19957 0.07221 0.05394 -0.20463 -0.27569 -0.04531 -0.40483 0.12230 -0.07310 0.11057 -0.19826 0.29006 -0.19438 -0.27404 0.00198 0.06830 -0.17825 -0.13397 -0.11317 -0.08206 -0.13167 -0.01709 0.06019 -0.28280 -0.10857 0.08555 -0.10687 0.19298 -0.06405 0.03920 -0.07196 0.01430 -0.18933 -0.23111 0.09239 -0.00455 0.07885 0.10808 -0.13525 -0.02138 0.17449 0.04010 0.21758 0.42214 0.28144 -0.13084 0.09256 -0.02529 -0.20810 -0.01536 -0.30071 -0.00705 -0.00860 0.04343 0.13337 0.05581 -0.10396 0.04260 -0.19165 -0.05732 -0.20715 -0.02589 0.03831 0.04109 0.23983 -0.03346 0.03593 0.11489 0.17574 0.03629 -0.03419 0.13229 -0.15982 -0.00123 0.14255 -0.02576 0.15796 0.13580 -0.06583 0.19361 0.22163 0.12749 0.13667 0.28978 0.19074 -0.13526 -0.14296 0.03307 -0.52474 -0.08028 -0.21442 -0.28200 -0.14200 0.24223 -0.08333 0.01630 0.03603 0.23413 0.01618 -0.00191 -0.19888 0.07862 0.02401 0.17970 -0.12137 0.20834 -0.35337 -0.02064 -0.10180 -0.14994 0.39498 0.25541 0.17832 0.07203 0.11042 0.19179 0.06860 -0.00625 0.08741 0.04803 0.24316 -0.10581 0.03380 -0.09883 0.11308 -0.40658 0.00030 0.00512 0.03200 0.04365 -0.28840 0.04673 -0.09462 0.20779
he 0.01467 -0.26812 -0.05230 0.23006 0.03114 0.13260 0.15627 -0.03568 -0.06879 0.37745 0.26000 0.06536 0.10545 -0.08384 0.00684 -0.35062 0.08727 -0.08454 -0.07979 0.14406 -0.09938 0.22698 -0.25031 -0.34414 0.03257 0.20315 0.23225 -0.18451 -0.10580 0.12870 -0.20596 0.05563 -0.18326 0.16372 0.00175 -0.26181 0.01564 -0.21012 -0.09857 -0.02786 0.00905 0.15216 -0.14542 -0.06067 -0.01208 -0.10709 -0.02537 0.23350 -0.13460 0.04342 0.04035 -0.13142 -0.10796 0.14868 -0.24327 -0.21122 0.05522 0.24520 0.11917 0.18490 -0.15568 0.02758 0.11264 -0.03942 0.04528 -0.25581 -0.15215 0.24204 -0.17778 -0.02073 -0.11384 -0.18628 0.11145 -0.07737 0.02702 -0.09214 0.21866 0.16610 -0.23244 -0.12927 0.21804 0.06546 0.14573 -0.02276 -0.12254 0.01628 -0.29042 -0.10536 -0.13048 -0.21748 0.08883 -0.35676 0.43895 -0.13208 -0.04349 0.20868 0.04079 0.05052 -0.26054 -0.25543 -0.03768 0.00219 0.22890 0.12642 -0.12268 -0.02199 -0.13756 -0.12565 -0.01619 -0.03061 0.00461 -0.24541 -0.00214 0.10537 -0.28513 -0.28361 0.26544 0.17673 -0.19454 -0.09230 0.02345 0.20037 0.05159 0.31713 0.01328 0.01814 0.15886 0.14062 0.00892 0.11651 -0.21173 0.13483 -0.14015 -0.35175 -0.33749 0.00638 0.01014 0.02523 -0.21273 -0.05386 -0.04604 -0.01498 0.07177 -0.10722 0.04727 0.17662 0.03578 -0.27281 0.00956 0.09305 0.04206 -0.12991 -0.03802 0.19335 -0.44323 0.07903 -0.15394 -0.10119 0.15100 -0.01014 -0.27380 0.34338 -0.22604 0.28772 0.11076 0.05021 -0.02832 -0.15248 0.26818 -0.08607 0.07783 0.07414 -0.12604 0.00964 -0.06353 0.24053 -0.11003 0.16175 -0.10464 -0.15088 0.17058 0.08230 -0.14244 0.21725 -0.16858 0.20828 0.03369 0.07582 -0.02568 0.08422 0.00214 0.03269 0.02511 0.31271 -0.22352 -0.14049 -0.00225 0.11708 -0.30667 -0.06456 0.21376 -0.06573 -0.17451 0.22245 -0.04914 -0.01906 0.04129 0.10033 0.20715 0.14142 0.17575 -0.00859 -0.02983 0.05363 0.06540 0.08294 -0.07487 -0.22161 0.02977 0.08874 -0.12474 -0.01753 -0.01617 -0.13967 -0.18010 -0.01850 -0.12567 -0.16774 -0.00743 0.06743 0.26623 0.23513 -0.16071 -0.16117 0.10872 0.00671 0.02895 -0.02683 0.00245 -0.11155 -0.08659 -0.14739 0.12836 0.38225 -0.24315 -0.02136 0.19199 -0.22529 -0.12179 0.07889 -0.09502 -0.20916 -0.05900 -0.05515 -0.22721 -0.03376 -0.21755 0.00820 0.24165 -0.10292 0.08484 0.13294 0.17828 -0.32875 -0.13609 -0.05241 0.02593 -0.02682 0.11330 -0.17822 -0.30246 -0.08347 -0.28678 -0.01545 -0.19332 -0.30020 0.16762 -0.02098 0.07665 -0.13527 0.08248 0.06832 -0.06377 -0.06968 -0.10251 -0.01594 0.09845 0.15689 0.00301 -0.12414 0.03634 -0.23409 0.01769 -0.05486 0.07375 0.05571 -0.20249 0.15422 -0.07772 0.22867
this -0.19964 0.08512 -0.05519 0.13142 -0.03426 0.11687 0.02430 -0.36591 -0.16021 0.13041 -0.05111 -0.19426 0.12888 -0.13138 0.05165 0.02113 -0.14945 0.11800 0.26445 0.21531 0.05979 0.14565 -0.13513 -0.08242 -0.30358 0.13601 -0.15623 0.07748 0.22425 0.22971 -0.14523 0.20617 -0.19068 0.13975 -0.06743 -0.03996 -0.01168 -0.02961 -0.19031 -0.17548 -0.02669 -0.10578 -0.11332 0.13866 -0.04110 0.12785 0.08431 -0.16118 0.02208 -0.03685 -0.05008 -0.03799 0.06923 -0.10608 -0.03604 0.28917 0.03956 0.09633 0.14466 -0.01343 -0.09126 -0.04023 0.35294 -0.33489 0.10616 -0.35523 -0.07793 -0.00507 -0.07954 0.11814 -0.13492 -0.04815 0.13197 -0.26917 -0.18266 0.05242 0.14771 0.25209 -0.09097 0.06294 -0.15311 0.18472 0.04401 0.03844 0.05966 -0.20255 0.02622 0.02449 -0.01686 -0.27549 0.10334 0.10343 0.44464 -0.20755 0.02245 -0.07245 0.10391 0.13244 0.07920 -0.00374 -0.09651 0.03513 -0.01180 0.07474 -0.11641 -0.00064 -0.15859 0.12314 -0.06241 0.10750 -0.05200 0.07968 -0.06113 0.02674 -0.11837 -0.07488 0.57404 0.06638 -0.05347 0.12976 0.12191 -0.06575 -0.10451 0.38098 0.08555 0.18503 0.04410 0.00560 -0.00055 0.29563 0.02690 0.15684 0.12214 0.10538 0.06907 0.21219 0.03233 -0.01003 0.07734 0.12691 -0.01046 0.05799 0.17236 -0.09186 0.03946 0.02058 -0.02829 0.15332 -0.08323 0.11851 0.06082 0.13223 0.14614 -0.28560 -0.01411 -0.23565 0.27903 0.03265 0.01797 0.18232 -0.12464 0.12322 -0.18978 0.03030 0.09069 0.08478 -0.06302 -0.12534 0.15142 -0.01554 -0.36105 -0.19801 -0.21259 -0.18934 0.03395 -0.13825 -0.03978 0.05722 -0.02898 -0.21503 0.08174 -0.06423 0.11149 0.39395 -0.05675 0.23975 0.17848 -0.16583 0.11568 -0.04708 -0.13793 -0.15936 0.27785 0.18192 -0.08966 -0.17054 0.02400 0.10111 -0.33998 -0.04070 0.17376 0.15860 0.10284 0.29167 0.06275 -0.15753 -0.16914 0.20502 -0.10835 -0.03556 0.21803 -0.06897 0.10176 0.00547 0.33023 -0.20426 0.24388 -0.01508 -0.15243 0.14785 -0.11590 -0.15334 0.19533 -0.10903 0.18967 0.03824 -0.01119 -0.06121 -0.01926 -0.00654 0.30863 0.09396 -0.15441 0.09038 -0.06916 0.03794 0.29172 -0.03564 0.05033 -0.26106 0.18763 0.08421 0.15093 0.00034 -0.09025 0.15647 0.27421 0.28715 0.00018 -0.03950 0.07163 0.11474 -0.15752 -0.04625 -0.14411 -0.20785 -0.12020 -0.29892 -0.07169 -0.12621 0.05428 0.22063 -0.38058 0.05633 0.08667 0.05431 -0.04436 -0.06605 -0.21377 -0.22255 -0.16978 -0.10923 0.25012 -0.02536 0.03471 -0.30406 -0.15446 0.01307 -0.16584 -0.17734 -0.09043 0.01750 0.03970 -0.27064 0.27928 -0.12816 0.02473 0.32566 -0.05411 0.03592 0.01864 -0.24873 -0.07219 -0.09184 -0.03473 -0.11994 -0.03695 0.37121 0.03829 0.13426
be -0.25026 0.22369 -0.09631 -0.02640 -0.13472 -0.00898 0.06540 -0.47185 -0.05106 0.05151 -0.16824 -0.03095 0.05542 -0.12948 -0.00627 0.10860 0.12160 0.12408 0.05899 -0.06763 -0.00838 0.09501 -0.10210 -0.10370 -0.15302 0.02115 -0.03664 -0.04030 0.14088 0.15744 -0.00886 0.02790 -0.13890 0.05319 -0.12304 -0.09192 -0.15491 0.28233 -0.00005 -0.37132 -0.20302 0.00994 -0.17615 0.06538 0.06818 0.05025 0.07649 0.07042 0.06765 -0.03389 0.01499 -0.30010 -0.11970 -0.07257 -0.07853 0.03050 -0.04839 0.25323 -0.37985 0.08134 -0.00055 -0.17629 -0.02592 0.13305 0.00170 -0.05754 -0.18037 0.06683 0.01806 0.03698 -0.31258 0.23392 0.02891 -0.30242 -0.11193 0.10407 0.20486 0.06918 0.17624 -0.19341 0.12059 -0.13434 0.20010 -0.13353 -0.14275 -0.09929 0.07585 0.09379 -0.32696 -0.36510 -0.09288 -0.10166 0.04633 -0.35481 -0.09861 0.08070 0.14017 0.21821 -0.08756 -0.02826 -0.03340 -0.12697 0.08491 -0.10590 0.06227 -0.13115 -0.20217 0.21356 -0.13520 0.06497 -0.00847 -0.14920 -0.18754 0.23022 0.12852 -0.20356 0.27514 0.16920 -0.06253 0.17163 0.02696 0.20587 -0.29252 0.55029 0.17327 -0.05305 0.19823 0.17507 -0.05966 0.22113 -0.31647 0.03478 0.01431 0.36628 0.09145 0.13519 -0.02166 0.08473 -0.00806 0.02473 -0.17821 -0.06739 0.10119 -0.16821 -0.11191 -0.08604 -0.14364 -0.10889 -0.09991 0.10719 0.05613 -0.01787 -0.00568 -0.09994 -0.22417 -0.18912 -0.03450 0.05748 0.24023 0.09987 0.00499 0.22043 -0.31164 -0.05691 -0.02007 0.09375 0.16696 -0.20301 0.09026 0.30012 -0.10868 -0.21016 -0.22773 -0.09293 -0.37742 0.07472 -0.12559 -0.02590 0.02688 -0.18513 0.01661 -0.17193 0.25518 0.29165 0.14476 0.19666 0.35115 0.02352 0.25183 0.08484 -0.15047 -0.47281 -0.10641 0.29480 0.03898 -0.25462 -0.00027 -0.01200 -0.36371 0.17908 0.15783 0.04490 0.02819 0.01511 -0.03956 -0.24440 -0.21118 0.26483 0.36933 0.06429 0.31829 -0.14861 0.33797 0.22144 0.32405 -0.00562 0.11812 -0.24185 -0.09425 0.22022 0.11795 -0.25267 -0.18225 -0.09376 -0.14506 0.02315 -0.22244 -0.04205 -0.06481 -0.11526 0.10159 0.19566 -0.12605 0.03287 -0.09431 0.21600 0.18244 -0.22899 -0.01561 0.00753 0.16186 0.14130 0.27935 0.07835 -0.08629 0.08952 0.23320 -0.06923 0.10922 0.21872 0.12420 0.05651 -0.13227 -0.01503 0.14657 -0.02327 -0.03911 -0.24631 0.07729 -0.00517 -0.03432 0.08653 -0.08839 0.14664 -0.32449 -0.16895 -0.32304 0.36483 -0.10341 -0.22328 -0.33559 0.00967 0.01592 -0.07130 -0.16660 -0.27372 0.17971 -0.00994 -0.05365 -0.11846 -0.10818 0.11709 -0.13894 -0.07618 0.01109 -0.21972 0.00334 0.14299 -0.02805 0.13819 0.14463 0.03191 -0.18493 -0.14341 -0.02114 -0.15106 -0.19847 -0.02331 0.16321 0.19618
i -0.40083 0.13992 0.12907 -0.11844 -0.24409 -0.07150 -0.12624 -0.10538 0.02121 0.17554 0.32066 -0.07666 -0.11599 0.18180 0.09440 -0.18509 0.06702 0.18963 -0.11674 0.00755 0.20718 -0.08527 -0.08232 -0.48372 -0.19477 0.01666 0.13037 -0.08229 -0.12701 0.07785 0.10845 0.04853 -0.13885 -0.02335 -0.06082 -0.31839 -0.01955 -0.18850 -0.03173 -0.34550 0.05397 0.10746 0.19029 -0.12995 0.08617 0.23445 -0.03202 0.02721 -0.08213 -0.19291 0.04121 -0.54555 0.08938 -0.15301 0.01214 0.30464 -0.20036 0.01403 -0.13102 0.10406 -0.16595 -0.05265 0.03560 -0.17021 0.20491 -0.20084 0.26766 0.09765 0.09770 -0.10981 0.20629 -0.31510 0.29097 -0.02642 -0.08256 0.32322 0.06097 0.08641 -0.02490 0.25225 -0.17195 0.26370 0.07778 0.08982 0.21588 0.18605 -0.07991 0.12193 -0.05187 -0.04702 -0.08762 -0.28111 0.39698 0.04465 0.10639 0.17851 -0.08549 0.01746 0.12033 0.24190 0.05410 -0.09509 0.00820 -0.16491 -0.24195 -0.37316 -0.10091 0.12269 0.18091 0.19682 -0.12658 0.06776 0.07948 0.00589 0.09771 0.07651 0.28721 0.36722 -0.24784 0.33637 0.25466 0.06516 0.00387 0.51321 -0.00393 0.10281 -0.06298 -0.14607 -0.08355 0.27136 -0.05304 0.05128 -0.30340 0.02909 0.14637 -0.01042 -0.09554 -0.01610 0.21725 0.36548 0.10367 0.07143 0.15473 -0.04442 -0.04575 -0.04114 -0.25878 -0.09272 0.01653 -0.12274 0.12470 -0.11255 0.32138 0.00660 0.06485 -0.10889 0.01085 -0.02834 0.16727 0.48490 -0.38852 0.41925 -0.17268 -0.06731 -0.11283 -0.02391 -0.11550 -0.32136 0.20107 0.20899 -0.20854 -0.18056 -0.22479 -0.35432 0.05797 0.23497 0.10999 0.27061 -0.21413 -0.34127 0.14516 -0.20070 -0.13604 -0.02444 -0.28124 0.17943 0.27596 -0.42049 0.06259 -0.10503 0.18763 -0.25080 0.02565 0.16668 -0.13414 -0.42009 0.03631 0.17262 -0.71421 -0.14795 0.58208 -0.15923 0.01654 -0.09107 0.01859 0.04583 -0.28081 0.18502 0.03225 -0.00153 0.16549 -0.02035 0.10414 -0.19742 -0.25135 -0.13147 -0.06754 -0.11853 -0.00047 0.36873 -0.13839 -0.02465 -0.01361 -0.10761 0.14113 0.02973 -0.03073 0.23215 -0.00657 0.10441 0.11082 0.01660 -0.24006 0.01712 0.09986 0.31432 -0.02540 -0.10787 -0.24261 0.30304 0.15428 0.08371 0.06319 0.15308 -0.01151 0.18101 0.43653 0.06449 0.10644 -0.39561 0.03310 -0.09685 -0.07949 0.19766 0.18531 -0.23033 -0.06417 -0.28063 0.19345 0.03354 0.02019 0.12357 -0.17250 -0.24075 0.01560 0.11660 -0.03286 0.29472 0.03315 -0.03934 -0.36029 -0.07565 0.15121 -0.02154 0.06999 -0.07789 0.15666 0.03827 -0.14749 -0.23696 -0.17154 0.30902 -0.29702 -0.22584 0.06157 -0.05292 0.07494 0.26361 -0.25301 0.02662 -0.09896 0.19602 0.00330 -0.17120 0.18921 -0.23340 -0.56724 0.23206 0.07941 0.13813
an -0.06711 0.00142 -0.18575 0.16489 -0.24534 0.27442 -0.14976 0.17940 0.03903 -0.10412 -0.11836 -0.25005 0.09727 -0.18550 0.07923 -0.30441 0.10697 0.05023 -0.05342 0.15365 -0.08308 0.34187 -0.15903 -0.27095 0.07711 -0.45049 0.12340 0.23913 0.23134 0.36702 -0.31195 0.20269 -0.28004 -0.01999 -0.09678 -0.14713 -0.10808 0.05197 0.12347 -0.35383 0.05799 0.04384 0.01558 0.04729 0.26144 -0.00102 0.05677 0.09489 0.08245 -0.22758 -0.16154 0.37473 0.03489 -0.12288 -0.04253 -0.12048 0.10472 -0.15786 0.18425 0.01629 -0.18772 0.08321 0.21165 -0.07000 0.13440 -0.26537 -0.20656 -0.01378 0.10536 -0.13477 -0.17973 -0.07751 0.39863 -0.14910 -0.24838 0.03068 0.19628 0.24353 -0.07541 -0.01285 0.13124 0.20169 -0.20009 -0.18221 0.09007 0.10347 0.00780 0.07771 0.07489 -0.08873 0.31458 0.14006 0.44936 -0.28195 0.21684 -0.09929 -0.12245 0.00557 -0.13224 -0.05935 -0.47566 0.09938 0.12039 -0.03768 -0.00565 -0.04537 -0.09163 -0.01639 0.06291 -0.00692 0.22300 0.04041 -0.39129 0.07271 0.34570 0.02296 0.27431 -0.06153 -0.03952 -0.04601 0.44318 -0.02101 -0.25356 0.61883 0.07018 -0.00456 0.00404 0.24567 0.02649 0.09453 -0.02861 -0.01744 -0.16636 -0.23643 0.12687 -0.19006 -0.17911 -0.12807 0.02420 -0.05127 -0.23255 0.14934 0.05870 -0.11689 -0.03297 0.27406 -0.30796 0.35716 -0.09639 -0.11453 0.15556 -0.08941 0.16066 -0.08070 -0.27865 -0.25479 0.00354 0.15614 0.11544 -0.11242 0.07595 -0.10383 -0.27032 0.12984 0.21313 -0.35816 0.27874 0.08321 0.14500 0.08345 -0.15985 0.20965 -0.17859 0.01626 0.00320 0.26716 -0.16324 0.38751 -0.28368 -0.03997 0.21694 0.12520 -0.13253 0.19007 -0.04980 0.16839 -0.10659 -0.00358 0.08265 -0.04830 -0.07543 -0.28164 0.14112 0.32230 0.09433 -0.16210 0.04559 0.10928 -0.23480 0.37516 0.12891 0.03009 -0.11905 0.03814 0.11584 -0.32110 -0.18984 -0.27154 0.24411 0.13410 -0.04658 -0.12268 -0.05095 0.02494 0.06697 -0.23294 0.02486 -0.24273 -0.23792 0.19572 0.09115 0.02086 -0.01760 0.24744 0.18309 -0.00006 -0.09518 0.23609 -0.21108 0.11985 0.25488 0.04966 -0.05252 -0.00613 -0.08705 -0.05741 0.28785 -0.10364 -0.02118 0.03759 -0.21986 0.13574 0.08251 -0.15437 0.09101 -0.10259 0.40257 -0.34492 -0.10568 -0.11181 -0.01450 0.07194 -0.51856 -0.04470 -0.27071 0.16498 -0.02824 0.06080 -0.14116 0.16779 -0.10622 0.18766 -0.02689 0.07539 -0.09800 0.06015 -0.33941 0.11857 0.28548 -0.31650 -0.14515 -0.07100 -0.22944 -0.00259 -0.28214 0.02001 0.15415 0.04021 -0.03502 0.07667 0.32477 0.02620 0.04112 0.06755 0.12288 -0.37067 0.17592 0.32079 0.28704 0.07177 -0.01947 -0.38063 -0.18415 -0.19396 -0.04616 -0.40847 0.07111 0.10503 -0.21437 0.09443
utc -0.48428 -0.32176 0.19893 0.46017 -0.42713 -0.04835 -0.02622 -0.52409 -0.23590 0.27416 -0.35709 -0.40256 0.19366 -0.26495 0.18056 -0.12858 -0.29003 -0.05781 0.13273 0.41410 0.04449 0.05630 -0.04529 0.01973 -0.18585 0.08590 0.10717 -0.12778 -0.02746 0.33869 -0.33442 0.21194 0.09199 0.37348 -0.25865 -0.07062 -0.26126 0.33048 -0.42579 -0.28211 -0.08848 -0.17591 -0.23531 -0.01652 0.01167 0.05413 -0.02793 -0.01298 -0.06923 -0.14820 -0.04168 -0.33993 -0.28414 -0.40908 -0.33748 0.05191 0.42039 0.05832 -0.00720 0.27670 -0.06838 0.01143 0.46776 -0.05100 0.10508 0.15315 0.29191 -0.10465 -0.18159 0.03391 0.01028 0.40703 -0.06459 -0.21320 -0.06090 0.38332 0.22248 0.19513 -0.02182 0.24547 -0.02530 0.38226 0.31938 0.22011 0.53214 0.04295 0.16149 -0.02066 0.09203 0.22657 0.21158 -0.16041 0.18343 -0.13396 -0.06567 -0.02717 0.01396 0.04588 0.06516 0.30027 0.17526 0.06682 -0.05282 -0.12023 0.26095 -0.08415 -0.13253 0.28631 0.06027 -0.11616 -0.17617 0.15855 0.13374 -0.07550 0.07739 -0.20716 0.19825 -0.22598 0.16929 -0.18486 0.48227 -0.34879 -0.43904 0.74208 -0.10392 -0.08886 -0.19534 -0.00274 0.16728 0.32927 0.08175 0.01466 0.06938 0.33484 0.35977 -0.25077 0.03443 -0.31405 0.30761 0.42403 -0.27366 -0.13119 0.14726 0.33224 -0.14972 0.21281 0.06400 -0.30588 -0.47515 0.02482 0.28330 0.04456 0.13179 -0.08473 0.07332 0.18197 -0.04890 0.15566 0.49161 0.30123 -0.11857 -0.15212 -0.53843 -0.28876 -0.05606 0.00308 -0.04477 -0.27874 0.29572 0.09109 -0.12764 0.26199 -0.35440 0.18866 -0.06873 0.04577 -0.05995 -0.48742 0.18282 -0.68760 0.05030 -0.20480 -0.00380 -0.19067 -0.15979 0.26742 -0.13125 -0.06677 -0.00785 -0.02912 0.07950 -0.38129 0.05898 0.02086 -0.31863 -0.07504 -0.30266 -0.03334 -0.55053 -0.14469 0.13898 0.08175 -0.06196 -0.09880 0.02274 0.17081 -0.29639 0.09207 0.07734 -0.06423 0.41990 0.02943 0.23973 -0.22587 0.09255 -0.09260 0.08314 -0.23305 -0.09340 0.11623 -0.08509 -0.20005 -0.04177 -0.17667 0.21748 0.11927 -0.19868 -0.11158 0.08623 -0.01828 -0.03233 0.11392 0.04883 -0.18285 0.04137 -0.00499 -0.00688 -0.21064 0.34286 -0.17382 0.33725 0.16046 0.34214 0.03239 0.11244 -0.11959 0.19667 0.45179 -0.02961 0.03838 0.16415 -0.43648 -0.21521 0.30470 0.00108 -0.32584 0.29244 -0.00686 0.26460 0.10143 0.15874 0.12227 -0.12451 0.11889 0.16019 0.06263 -0.26511 0.17294 -0.56961 0.03357 -0.06086 -0.17523 0.40498 0.24806 -0.30159 -0.12636 -0.09559 0.11320 -0.05035 -0.62738 0.04064 0.12592 -0.13136 -0.12702 0.29255 0.06763 0.14870 0.32518 0.22358 0.41682 -0.12407 0.23633 -0.13029 -0.08783 0.31466 -0.12516 -0.09790 0.40406 0.51224 0.10815
his 0.10402 -0.28821 -0.15818 0.20985 0.04953 -0.00288 0.09610 -0.02472 -0.00502 0.36894 0.35031 0.16471 -0.03064 0.17483 -0.06652 -0.21750 0.18220 0.08670 -0.13177 0.10110 -0.17153 0.15379 -0.13414 -0.33524 0.03576 0.29399 0.21437 -0.02808 -0.10089 0.15110 -0.10783 0.26146 -0.17181 0.11925 -0.14755 -0.16129 -0.02083 -0.09831 -0.01533 -0.08996 0.22468 -0.03473 -0.04656 -0.00993 0.15348 -0.11242 0.18949 0.30700 -0.06551 0.01830 0.12813 -0.10501 -0.20465 0.16126 -0.29858 -0.13633 -0.04617 0.02023 0.04982 0.10887 -0.13646 -0.17847 0.15018 0.20485 -0.01190 -0.13977 0.04609 0.34986 -0.02460 -0.07807 0.05611 -0.09034 -0.11524 -0.21607 -0.07615 -0.20427 0.30443 0.30296 -0.10428 -0.11743 0.10949 0.22764 0.01413 -0.02573 -0.00544 0.13203 -0.21665 -0.06885 -0.22982 -0.17954 0.13009 -0.29531 0.32598 -0.12503 -0.00893 0.05114 -0.16682 -0.07138 -0.14329 -0.15270 -0.15729 -0.02634 0.18611 0.07827 -0.05251 -0.10873 -0.07747 0.07973 0.00182 0.19693 0.13191 -0.11219 -0.00675 -0.01091 -0.17434 -0.20055 0.11816 0.11507 -0.02196 0.01649 0.16514 0.09180 -0.02532 0.15706 0.07731 -0.02087 0.07657 -0.01656 -0.02786 0.00570 0.02676 0.30276 0.18429 -0.39858 -0.19740 -0.10722 -0.24991 0.03252 -0.05819 -0.15729 -0.06996 0.05667 0.10521 -0.01991 -0.04833 0.25628 0.13982 -0.17149 -0.03060 0.09435 0.19142 -0.07823 -0.02740 0.06945 -0.29189 0.28549 -0.29543 -0.10823 0.08666 -0.10761 -0.29005 0.13072 -0.04956 0.36925 0.04088 0.20516 0.16198 -0.12005 0.30093 -0.16159 -0.11649 0.05438 -0.12412 0.11427 0.07497 0.32926 -0.14556 0.25363 -0.06367 -0.22407 0.14934 0.07431 -0.13327 0.13586 0.01550 0.20365 0.17495 -0.12586 0.16635 0.11568 0.15053 0.03829 0.03432 0.40924 -0.14291 0.04554 -0.19508 0.03175 -0.20573 -0.02672 0.20341 -0.03718 -0.01112 0.06064 -0.04325 -0.03720 -0.00258 0.11564 0.08555 -0.00768 0.24845 0.09748 -0.03032 -0.18236 0.10056 -0.00631 -0.06915 -0.13354 -0.01669 0.10081 -0.12247 -0.11127 0.00415 0.03074 0.04703 0.17093 -0.18525 -0.36397 0.02948 -0.02829 0.25925 0.17551 -0.10166 -0.19536 -0.10045 0.07428 0.15925 -0.04829 -0.06633 -0.11771 0.01597 -0.19225 -0.00889 0.42897 -0.05680 -0.05076 -0.06733 -0.22538 0.02208 0.12371 -0.08955 -0.21704 0.13323 -0.06772 -0.18504 0.06141 -0.23275 -0.06545 0.33823 -0.04786 0.03883 0.26028 0.14815 0.04734 -0.15341 -0.16757 0.12126 -0.02344 0.05640 -0.31843 -0.36956 -0.20536 -0.04276 0.35714 -0.17906 -0.30057 -0.04249 0.24998 0.13782 -0.01492 0.06055 0.21477 0.04622 0.06689 0.04799 0.24497 -0.04482 0.18982 -0.02509 -0.18196 -0.04602 -0.29132 -0.12802 -0.03245 0.15870 0.02890 0.07769 0.44013 -0.09768 0.22984
not -0.10165 0.05992 -0.12320 0.12549 0.08186 -0.10623 0.01052 -0.30959 -0.20744 0.14257 -0.21890 -0.07508 0.05116 -0.23372 0.17875 -0.07969 -0.00254 0.32958 0.04009 0.08221 -0.07075 0.12185 -0.18589 -0.16153 -0.00588 -0.00619 0.06643 0.22926 0.09312 0.10566 -0.09339 -0.08666 -0.28523 0.18420 -0.20413 -0.24826 -0.10283 0.26559 0.01758 -0.29948 -0.08065 0.04026 -0.15623 0.12859 0.23405 0.37070 0.16416 -0.24976 0.07186 -0.13659 -0.07915 -0.23499 0.13596 -0.07797 -0.16653 -0.13163 0.12363 0.06820 -0.12249 0.21363 -0.21791 -0.23386 0.24773 -0.19450 0.14560 -0.17696 -0.06788 0.02295 0.15419 -0.13254 0.08950 0.30693 -0.06108 -0.18089 -0.09973 0.10039 0.11981 0.27519 0.06689 0.12991 0.00048 0.08200 -0.08854 0.09554 -0.04372 -0.05808 -0.17790 0.05943 -0.19557 0.07380 -0.10429 0.25920 0.38376 -0.32830 0.04079 0.16860 0.08175 -0.01345 -0.06599 -0.07209 -0.07091 -0.13503 0.03287 -0.22361 -0.13109 -0.18579 -0.04390 -0.17439 0.12251 0.20237 0.12065 -0.05179 0.09136 0.01385 0.23909 0.07045 0.34300 -0.00052 0.14629 -0.25541 0.18622 0.28975 -0.23453 0.38065 -0.03352 -0.17608 0.08991 0.11165 0.00427 0.23004 -0.24383 0.05827 -0.15064 0.09060 0.06707 -0.07276 -0.01672 0.12593 0.10604 0.04664 -0.21302 0.19356 0.14575 -0.04010 0.00675 0.12274 -0.24602 -0.04429 -0.24008 -0.01614 0.15613 -0.07187 0.17440 0.09741 -0.06778 -0.04321 -0.08205 0.13555 0.26349 0.16000 -0.14858 -0.00882 -0.19326 -0.04455 -0.03167 0.07009 -0.04054 -0.19398 0.19131 0.18515 -0.14181 -0.23062 -0.28975 0.10269 -0.00795 0.11435 -0.16898 0.02310 0.08244 -0.01395 -0.13180 -0.28277 0.12417 0.10896 -0.02456 0.28635 -0.04413 -0.00330 0.19125 0.02919 0.02885 -0.22327 -0.10749 0.08583 -0.20578 -0.00035 -0.16539 -0.10246 -0.25074 0.24211 0.15598 0.08619 0.07504 0.01038 0.08570 -0.01698 -0.14958 0.21403 0.26406 -0.00699 0.28679 -0.09140 0.25260 -0.00922 0.10054 -0.07807 0.01947 -0.25116 -0.09125 0.15673 -0.01380 -0.09999 -0.09497 -0.15354 -0.02700 0.09274 -0.33393 -0.00228 -0.27831 -0.04456 0.36797 0.35371 -0.27255 -0.15559 -0.01993 0.04788 0.23914 -0.04471 -0.04073 0.03308 -0.03422 0.11005 0.23268 -0.03982 0.04316 0.26540 0.29131 -0.04786 -0.02309 -0.12603 0.13355 0.04416 -0.22604 0.14485 0.00235 0.03196 0.10215 -0.17147 0.17108 -0.04634 0.01868 0.15571 -0.26299 -0.10860 -0.17212 -0.08515 -0.22671 0.43174 -0.20754 -0.07232 -0.11661 -0.03936 0.02855 0.14251 -0.12054 -0.20299 0.01639 0.09502 0.09295 -0.15450 0.06481 0.08207 -0.16931 -0.05224 0.10540 -0.10485 0.11488 0.55399 -0.07498 0.06399 0.10147 0.13905 -0.05181 -0.00999 0.02069 -0.29344 -0.10568 -0.05823 0.10437 -0.09779
– -0.07424 -0.14581 0.00424 -0.05414 -0.06173 0.17953 -0.06943 -0.12135 -0.11875 0.16621 0.20177 -0.01723 0.15730 -0.03953 0.09001 -0.03669 -0.26098 0.00419 -0.11284 0.02336 0.14000 0.08904 -0.05335 -0.14647 -0.36383 -0.14891 0.21760 -0.40479 0.34155 -0.34712 -0.21871 0.17763 -0.03103 0.10545 0.24395 -0.19795 -0.09316 -0.44803 0.15658 -0.25791 0.18745 0.06833 -0.07266 0.22322 0.13603 -0.32969 -0.15249 0.08562 0.25487 0.28128 0.01063 -0.35538 -0.03386 -0.16449 -0.08980 -0.27825 0.10672 0.13474 -0.03855 0.34300 0.03172 -0.16919 0.09189 0.10994 -0.09171 -0.10035 0.14889 -0.18087 -0.32579 0.00491 -0.14462 -0.20269 0.05500 -0.07028 0.36124 -0.19905 0.51309 0.01531 -0.24274 0.33375 -0.00679 0.19277 -0.14527 0.07256 0.11603 -0.09405 -0.02158 -0.15835 0.08637 0.02145 -0.21514 -0.22843 0.11517 0.10596 -0.12265 -0.04481 0.00486 -0.08685 0.05855 -0.05123 0.22049 -0.03378 0.08235 0.00760 0.24701 -0.14740 -0.13146 -0.01793 0.22089 -0.32185 0.14070 0.11082 -0.20397 -0.07028 0.17148 -0.06425 -0.09087 0.27986 -0.13876 -0.00342 0.37916 0.01054 0.09742 0.05777 0.02726 -0.13204 -0.17153 0.20486 0.00591 -0.17919 0.03287 0.02605 -0.06734 0.14050 -0.12048 -0.13560 -0.17090 -0.48859 0.16916 0.04250 0.03896 -0.09650 0.41464 -0.02048 -0.12186 0.34176 -0.08529 -0.03789 0.14855 0.15346 -0.11007 -0.09172 -0.23075 -0.03951 0.07351 0.09732 -0.14733 -0.16400 0.21308 0.12019 -0.17643 0.04506 -0.27805 0.31068 0.18107 -0.26007 -0.00961 0.35491 0.17522 -0.22537 -0.16697 -0.05265 -0.03835 0.10752 0.06093 0.45545 0.02967 0.17492 0.01422 -0.11258 -0.06437 -0.28497 -0.12605 -0.14725 -0.11215 0.50552 -0.02112 0.19148 0.20749 -0.23089 -0.00259 0.04658 0.27259 0.23126 -0.04141 -0.22447 0.16386 -0.21997 -0.06584 -0.12412 0.04854 -0.27597 -0.22871 -0.13584 0.32973 0.08257 -0.01676 -0.00219 0.43885 0.30782 0.43322 -0.12505 -0.02148 -0.41959 -0.19090 -0.08484 -0.05846 -0.25144 -0.56395 0.00651 0.09035 0.09514 -0.35786 0.26598 -0.04891 0.00014 -0.06099 -0.29650 0.08384 0.21255 -0.04979 0.36730 -0.21245 -0.23451 -0.32343 0.01169 0.06591 0.21766 -0.06619 -0.05745 -0.30345 0.13892 0.21630 -0.33747 -0.02170 -0.19323 0.08441 -0.11848 0.26885 -0.19656 -0.03894 -0.39928 -0.16134 0.12309 0.17358 -0.20440 -0.13378 0.22725 -0.03332 0.08270 0.03600 0.25970 0.24780 -0.07049 0.14230 0.10547 -0.01697 -0.00038 0.28261 0.29803 -0.31649 0.15573 -0.15650 -0.06034 -0.01999 -0.17410 0.31426 0.15278 0.10003 0.00322 0.02475 -0.17344 0.00309 0.50289 0.23061 0.02533 0.02242 0.09037 0.18072 0.18711 0.18092 -0.18509 0.29914 0.02720 -0.15691 -0.02208 -0.06193 -0.08754 0.13087 -0.10008
are 0.06808 0.11922 0.02388 0.37069 0.01419 0.09771 0.21779 -0.24945 0.00112 0.16098 0.00648 0.33891 -0.11749 -0.03771 0.18563 -0.06985 0.17305 -0.03147 0.04019 -0.27739 -0.20284 0.02998 -0.27263 -0.02509 0.09177 0.11020 0.38902 -0.10087 -0.17198 -0.06711 -0.04052 0.07938 -0.14774 0.12478 -0.16603 -0.09940 -0.07727 0.39471 0.00548 -0.08421 0.01277 -0.18077 -0.03022 0.09116 0.03568 0.06984 0.16220 -0.09734 0.01686 -0.07452 0.05334 -0.21452 0.03338 0.04107 -0.27623 0.07726 -0.01489 0.25726 -0.43105 0.22767 0.00918 -0.07473 0.22352 0.09246 0.03789 0.28344 -0.27073 0.03262 -0.06867 -0.05816 -0.17353 0.12066 0.00510 -0.17134 -0.33808 -0.08456 0.21941 0.19253 0.09501 -0.14823 0.00153 0.10643 -0.05734 0.06329 -0.09634 -0.11199 -0.06560 0.20725 -0.01451 -0.04992 -0.05556 -0.08997 0.01394 -0.33375 0.02062 -0.09846 0.15909 0.00889 0.35115 0.01064 0.26200 0.09302 0.18694 -0.18338 -0.16586 -0.13103 -0.07226 0.04820 -0.07526 -0.13489 -0.08206 -0.07549 -0.21996 0.00514 0.20318 0.00129 0.06762 0.15115 0.10954 0.21893 0.17318 0.10901 -0.20532 0.29342 0.02255 0.24915 0.32257 0.13122 0.08672 0.21107 -0.09671 0.02311 -0.13828 0.30200 0.15696 -0.04977 -0.04199 0.11019 -0.02198 -0.08046 -0.05068 0.26178 0.24030 -0.09769 0.14033 0.11232 -0.32539 -0.03409 -0.03529 0.04899 -0.07589 -0.34727 0.01604 -0.04827 -0.02134 -0.13193 0.11539 0.02406 0.44077 0.03801 0.14401 0.29159 -0.24173 -0.00490 0.15583 0.10192 -0.10392 -0.28757 0.28469 0.41803 -0.04230 -0.05129 -0.09856 0.34091 -0.11194 0.19712 -0.02525 -0.06966 0.03875 0.06066 -0.08998 0.00867 0.15042 0.25503 0.27898 0.13669 0.05546 0.05992 0.33180 -0.15095 -0.03023 -0.17807 -0.17358 0.00716 -0.00085 -0.27386 -0.05095 0.17567 -0.07578 -0.08360 0.14937 -0.17486 -0.11393 -0.12485 -0.05241 -0.16460 -0.11442 0.18861 0.24865 0.05498 0.14604 0.03455 0.06755 0.21737 0.10234 -0.03410 -0.14013 -0.20881 -0.06207 -0.05566 -0.02310 -0.03769 -0.24167 -0.09063 -0.17715 0.20651 -0.08155 0.01537 -0.01354 -0.05922 -0.19558 -0.09813 -0.16625 -0.20143 -0.33186 0.16345 -0.09983 -0.29490 0.08549 0.02152 -0.00176 -0.02582 0.19679 -0.06622 -0.03168 0.50367 0.28156 -0.05637 0.16811 0.01519 0.03930 0.19240 -0.24432 -0.14347 0.01641 0.07385 -0.08145 -0.21480 0.12565 -0.15951 0.03342 0.29264 -0.22688 0.01268 -0.34332 -0.09487 -0.16327 0.37924 -0.11830 0.12053 0.17636 0.31000 0.15456 -0.04230 0.01096 -0.06829 0.21338 0.12910 -0.20109 0.13406 0.20265 0.01775 0.10243 0.12721 -0.04871 0.12510 0.09013 0.15317 -0.50606 0.39727 0.07870 0.08761 -0.08958 0.18350 0.11305 0.05153 -0.27361 -0.06068 0.37629 -0.13470
or 0.15704 0.27477 -0.14640 -0.04292 -0.10607 -0.11715 0.05167 -0.32192 0.33107 -0.02588 -0.07517 -0.07481 0.20810 0.09994 0.04154 0.03086 -0.25155 0.25441 -0.08441 -0.05155 -0.17238 -0.15269 -0.18267 0.18355 -0.05112 0.07332 -0.02293 -0.00635 -0.00587 -0.14793 0.00592 0.30124 -0.26510 -0.02141 -0.27338 -0.12335 -0.03861 -0.01588 0.11503 -0.11516 -0.00260 -0.05435 -0.12987 -0.10556 0.13894 -0.01574 -0.15422 0.09775 0.15300 -0.12647 -0.14520 -0.14620 -0.13567 -0.13104 -0.41950 -0.07587 0.03678 -0.24020 -0.06093 0.12043 -0.30466 -0.16522 0.24939 -0.00839 -0.00022 0.12085 -0.10663 -0.14130 -0.01337 -0.00589 -0.41856 0.16722 0.01226 -0.03997 -0.16393 0.09776 0.35358 0.06402 -0.02861 0.08267 0.04490 0.04129 0.14051 -0.01796 0.05264 -0.04967 -0.07480 0.16103 -0.17408 -0.02208 -0.08310 -0.27132 0.17934 -0.44707 0.13648 0.22114 -0.00460 0.23959 -0.12924 -0.00266 -0.22004 -0.10051 0.02571 -0.13299 0.19071 0.06407 -0.02278 0.00328 -0.16831 0.04376 -0.11602 -0.09186 -0.38552 0.09475 0.03602 0.07783 0.01938 0.04215 -0.01217 0.41450 0.26425 0.19812 -0.06433 0.26048 0.09940 -0.14283 0.15676 0.21875 -0.06971 0.23653 0.06497 0.05967 0.14283 0.19122 0.19368 -0.10592 -0.14375 -0.11758 0.12519 -0.09938 -0.26858 -0.04188 0.11157 0.09033 0.13836 0.14039 -0.24200 -0.05492 -0.25838 0.20088 -0.11406 -0.14746 -0.00502 -0.18580 -0.24144 -0.00924 0.11046 0.03752 0.21497 0.01407 -0.22261 0.18182 -0.15965 -0.08996 0.21230 -0.20447 -0.08801 -0.19400 0.10807 0.23240 -0.19668 -0.03318 -0.11221 0.20041 -0.16249 -0.03072 -0.17868 -0.01233 0.10392 -0.03110 0.04171 0.06168 0.21223 0.17411 -0.03224 0.32212 0.21967 0.03692 0.25710 0.08375 0.02917 -0.09624 0.12359 0.00106 -0.24225 -0.19914 0.17453 0.08933 -0.42055 0.13403 0.00551 -0.14981 -0.00579 -0.06790 -0.19506 -0.15872 -0.37655 0.27361 0.04773 0.16533 0.05421 -0.02146 0.14338 0.14566 0.01558 -0.17634 0.04281 -0.29286 -0.19828 -0.02574 -0.18551 -0.23724 -0.21856 0.34016 -0.01568 0.21319 -0.21419 -0.02756 -0.02193 -0.02211 0.12934 0.03122 -0.20615 0.03313 -0.12703 0.22021 0.13355 -0.13730 -0.13107 -0.07201 0.05324 0.07785 0.21310 0.03414 0.01428 0.49335 0.29841 -0.01324 0.06734 0.15452 0.14319 0.01568 -0.16666 0.05215 0.09599 0.07690 0.13227 -0.30337 -0.04441 -0.14320 -0.17713 -0.04057 -0.20965 0.06751 -0.14875 -0.26898 -0.15289 0.22591 0.17172 -0.09821 -0.26325 0.22259 0.09361 -0.12336 -0.06390 0.13469 -0.03975 -0.11120 0.20467 0.20881 0.14671 0.06278 -0.01664 0.22037 0.23413 -0.12865 0.21238 0.32971 -0.13284 0.03472 -0.03291 0.04727 -0.00140 -0.01085 -0.03144 -0.01160 -0.17007 0.16054 0.10169 0.03617
talk -0.51502 -0.08715 0.29287 0.56510 -0.28805 -0.17474 -0.03858 -0.51808 -0.20800 0.05762 -0.25418 -0.07013 0.17217 -0.17911 0.23253 0.00204 -0.35401 0.04665 0.12056 0.38395 -0.09800 0.35237 -0.04199 0.04698 -0.28973 -0.03072 -0.12125 0.04654 0.01825 0.03811 -0.20077 0.20537 -0.21331 0.15839 -0.44963 -0.09859 -0.04230 0.29175 -0.04465 -0.27497 -0.08445 -0.25379 -0.46090 0.10064 -0.00551 -0.16253 -0.04451 -0.22172 0.17125 -0.02595 0.03153 -0.37800 -0.14173 -0.39830 -0.34191 -0.01255 0.21553 0.05542 0.06644 0.22830 -0.08436 0.08296 0.38922 -0.06928 0.14633 0.12257 0.36995 -0.00312 0.01867 0.04994 0.09124 0.27755 -0.02426 -0.26027 0.07692 0.28322 0.33993 0.26507 0.06741 -0.03339 -0.18819 0.16684 0.42160 -0.00107 0.54386 -0.15157 0.10137 0.12335 -0.13373 -0.00996 0.11231 -0.09379 0.31382 -0.22426 -0.18026 -0.07862 -0.07440 -0.00836 0.24154 0.26961 0.09268 -0.16979 0.04212 -0.02009 0.36024 0.07136 -0.29228 0.22043 0.06679 0.00766 -0.30348 0.13248 -0.00714 0.03732 0.07858 0.01602 0.09838 -0.14786 -0.05225 -0.10443 0.45094 -0.10489 -0.21742 0.47534 0.06089 -0.05089 -0.08475 0.17821 0.03563 0.45390 0.19804 0.22578 -0.07780 0.33530 0.17344 -0.09908 0.05922 -0.17151 0.21276 0.22492 -0.36317 -0.06748 0.15167 0.29204 0.00403 -0.02696 0.18859 -0.01180 -0.34211 0.11941 0.19878 0.02073 0.26005 -0.05438 -0.13848 -0.03047 -0.10115 0.19098 0.45340 0.29641 0.01661 0.13778 -0.55542 -0.04297 0.00391 -0.23734 -0.02063 -0.23122 0.19121 0.07643 -0.27428 0.35226 -0.35025 -0.17145 -0.24696 0.26374 -0.03600 -0.42555 0.32856 -0.54186 0.27558 -0.13008 0.10612 -0.05736 -0.40505 0.38429 0.16890 -0.15704 -0.05316 0.19776 -0.20164 -0.22386 -0.00247 -0.10298 -0.17367 -0.29494 -0.26827 -0.10596 -0.44870 0.10969 0.06573 0.10714 0.28274 -0.03641 0.09431 -0.07903 -0.60359 0.17576 -0.11556 -0.28082 0.51630 -0.15851 0.24633 -0.12513 -0.00210 0.03283 0.29735 -0.12502 -0.06365 0.30564 0.14165 -0.27447 -0.11954 -0.15022 0.05908 0.05558 -0.33298 -0.36227 -0.13820 -0.01230 -0.00119 0.17768 0.23547 -0.14427 -0.16888 0.10630 0.11360 -0.01808 0.09446 -0.16756 0.20222 0.14059 0.35022 0.10239 0.05756 0.20441 0.22367 0.48103 0.06550 0.17266 0.31872 -0.43984 -0.30028 0.19134 0.18433 -0.31557 0.14953 -0.19690 0.09683 -0.06163 0.04080 0.09179 -0.21148 -0.01332 0.34210 0.07782 -0.17176 0.23772 -0.39733 0.05606 -0.07854 -0.02059 0.46005 0.17168 -0.26961 -0.17015 0.10934 -0.23509 0.07925 -0.35777 -0.05447 0.42470 -0.23561 -0.09970 -0.05185 -0.14279 0.02881 0.31988 0.21254 0.32248 -0.13966 0.19339 -0.05760 -0.10295 0.33619 -0.14097 -0.04838 0.45479 0.43523 0.14572
which -0.13660 0.08961 -0.14943 0.11649 -0.01319 0.17219 0.02641 -0.18583 0.09405 0.11502 -0.05315 -0.02442 0.07684 -0.01956 -0.10610 -0.16221 -0.01003 0.04904 0.18104 0.15793 -0.10595 0.03194 -0.09264 -0.16962 -0.05675 -0.08779 0.06553 -0.03170 0.03394 0.11224 -0.24995 -0.00243 0.00798 0.28455 0.17273 -0.04193 -0.11081 -0.15354 -0.02948 -0.05442 0.06754 -0.03853 0.00856 0.05769 0.06516 -0.00267 -0.01648 0.01040 0.07781 -0.01143 0.14611 -0.13983 -0.02189 0.12978 -0.18038 0.05689 -0.11715 0.09215 -0.06767 0.00716 0.02422 0.01757 0.28959 -0.00744 0.08153 -0.28356 -0.22615 -0.14195 0.08581 0.05778 -0.19975 0.00104 0.01922 -0.12793 -0.04988 -0.09197 0.13904 0.14927 -0.13723 -0.05033 0.05194 -0.06335 -0.02417 0.08224 -0.12480 -0.01605 0.06616 0.15183 0.06060 -0.13138 0.02195 0.02051 0.21477 -0.26457 0.09080 -0.03615 0.21892 0.10993 -0.07283 -0.02658 -0.20511 -0.00893 0.22130 -0.06057 -0.26017 -0.12535 -0.10255 0.04148 -0.00997 -0.05855 -0.10755 -0.04048 -0.08296 -0.08612 -0.05790 -0.11497 0.12638 0.03730 0.04305 0.06962 0.30646 0.13169 -0.11527 0.44147 0.01282 0.03693 0.25245 0.16918 0.06093 0.19901 0.04958 0.07128 0.01201 -0.06379 -0.12030 0.11302 -0.04772 0.20644 0.07993 0.03803 0.23802 0.14750 0.23901 -0.01101 -0.04243 0.19112 0.01067 -0.03424 0.03625 0.11664 0.03287 -0.16543 -0.10125 -0.04473 -0.09687 -0.14071 0.05055 -0.02255 0.19573 -0.11806 -0.16719 0.12285 -0.19589 0.13134 0.27461 -0.11551 -0.07157 -0.04092 0.14418 0.01205 -0.09877 -0.14701 -0.13802 -0.10642 -0.15041 0.04726 -0.03337 0.13185 -0.09354 -0.02437 0.07193 -0.09827 0.00458 0.00135 0.00753 0.12576 0.12891 0.02522 0.15136 -0.11688 -0.03638 -0.25848 0.30017 0.16147 -0.14445 -0.02188 0.06626 0.11211 -0.13981 -0.16118 0.14848 0.13138 -0.05233 0.23926 -0.11716 -0.09338 -0.07909 0.04452 0.01543 0.06736 0.13241 -0.01073 0.04565 0.03483 0.10518 -0.00999 -0.04870 -0.20633 0.02686 0.06574 -0.08109 -0.13418 0.01835 0.17805 -0.01639 -0.01646 -0.25730 -0.18557 -0.09703 0.03776 0.24172 0.08714 -0.05718 0.01064 -0.01801 0.15687 0.11464 -0.27033 0.12867 0.01962 -0.09144 -0.07054 -0.00612 -0.05000 -0.08100 0.16626 0.09409 0.00747 0.03012 -0.00126 0.00962 0.14521 -0.10851 -0.07941 -0.12510 0.10606 -0.06030 0.01355 -0.02738 -0.21868 0.03271 -0.05434 -0.06900 0.01994 -0.04624 -0.07232 -0.12047 -0.06414 -0.04856 -0.07825 -0.28058 -0.07327 0.04469 0.06550 -0.19013 -0.06164 0.14578 0.12103 0.07249 -0.05621 0.12846 0.00185 -0.12455 -0.12468 0.13788 -0.20864 0.03181 0.15860 -0.15104 0.00434 0.02715 -0.13943 0.06129 0.08566 0.01077 -0.10260 -0.11045 0.10613 0.03281 -0.06609
also -0.10199 -0.02957 0.04409 -0.00956 -0.09123 0.06753 0.01902 -0.08368 0.08547 -0.03543 -0.01839 0.05297 0.19551 -0.06855 0.04727 -0.10403 0.10777 0.17372 -0.11649 0.00875 0.03387 0.10598 -0.11332 -0.25169 -0.09775 -0.09137 0.08659 0.05132 -0.13105 -0.04156 -0.09129 -0.06047 -0.01224 0.15386 0.32111 0.05939 -0.16265 0.10270 0.06233 -0.09779 0.00361 0.13996 0.05206 0.03790 -0.08455 -0.00073 -0.07838 0.06179 0.05466 -0.05995 -0.05860 0.01573 -0.02949 0.16198 -0.14704 -0.07278 0.13280 -0.00742 -0.31438 0.05063 0.02701 0.14460 0.06395 -0.18001 0.13802 -0.02969 -0.28690 -0.03181 0.07040 -0.08278 -0.17790 -0.07474 -0.00319 -0.18660 -0.19473 -0.12418 0.20480 0.13232 -0.05765 -0.08379 0.21755 0.07123 -0.13457 -0.01619 -0.10486 -0.09330 -0.08005 0.00945 -0.08213 -0.09243 0.06795 0.11587 0.25693 -0.12683 -0.00050 -0.05076 0.10701 0.14283 -0.18908 0.04239 -0.08365 -0.06971 0.22650 -0.17424 -0.20350 -0.02874 -0.00909 0.02401 0.10139 -0.07969 -0.07949 -0.05266 -0.13967 -0.05296 -0.22001 -0.06399 0.13558 0.17520 0.07069 0.09144 0.22637 -0.00538 0.13638 0.25446 -0.03182 -0.05300 0.17931 0.02528 -0.07736 0.21873 0.03304 0.28444 -0.11726 -0.12749 -0.03004 0.07203 -0.19290 0.05898 -0.13218 0.11090 0.08971 0.20154 0.18655 -0.12028 0.23454 0.32869 0.05501 -0.03425 0.15899 -0.00583 -0.15113 -0.22112 0.02173 -0.03781 -0.05163 -0.00307 -0.07737 -0.09907 0.32765 0.06016 -0.11181 0.18229 -0.21733 0.13687 0.31553 -0.13248 -0.10967 -0.15215 0.12272 -0.01019 -0.14129 -0.16995 -0.08226 -0.03833 -0.01740 -0.12772 0.24262 0.08336 -0.05914 -0.04619 0.10283 0.00516 -0.07915 0.15747 -0.04346 0.22579 0.08761 -0.02236 0.14214 0.03706 -0.08209 -0.18713 0.19100 0.13647 0.01625 0.01427 0.13118 0.09029 -0.22856 -0.10881 0.14809 0.18069 -0.01077 0.17902 0.09119 -0.06543 -0.12803 0.13762 0.14837 0.19205 0.39363 -0.16942 -0.11687 0.03814 -0.01613 -0.07064 -0.05754 -0.08753 -0.04822 -0.02271 -0.05631 -0.13467 -0.25796 -0.04706 -0.15093 -0.08238 -0.16020 -0.18496 0.06073 0.10906 0.13877 0.05133 -0.01472 -0.04120 0.08071 0.17732 0.17239 -0.07860 0.12017 0.10604 -0.19992 -0.05581 -0.08637 0.03107 -0.08649 0.23517 0.17327 0.00038 0.05922 -0.00918 0.20371 -0.01974 -0.01119 0.01058 -0.06188 0.05987 -0.07168 -0.05295 0.12472 -0.21844 -0.04413 0.16826 0.11384 -0.08969 -0.03819 -0.11779 -0.22465 0.15300 0.02922 -0.22414 -0.37770 -0.12909 -0.13505 -0.05075 -0.07906 -0.27431 0.16502 0.10421 -0.01087 -0.14634 0.10699 -0.05873 -0.03779 -0.07227 0.07237 -0.10982 -0.09599 0.26826 -0.03556 0.05075 -0.11292 -0.06942 0.08617 0.06573 -0.05432 0.05251 -0.16253 0.20150 0.00413 0.07533
